tree
version=v3
num_class=1
num_tree_per_iteration=1
label_index=0
max_feature_idx=25
objective=cross_entropy
feature_names=PlotCode DBHAvg CommonNames_American.Elm CommonNames_Balsam.Fir CommonNames_Beaked.Hazelnut CommonNames_Black.Birch CommonNames_Black.Cherry CommonNames_Black.Spruce CommonNames_Blue.Beech CommonNames_Coniferous CommonNames_Deciduous CommonNames_Eastern.Hemlock CommonNames_Eastern.Tamarack CommonNames_Fire.Cherry CommonNames_Paper.Birch CommonNames_Quaking.Aspen CommonNames_Red.Maple CommonNames_Red.Spruce CommonNames_Speckled.Alder CommonNames_Striped.Maple CommonNames_Sugar.Maple CommonNames_White.Ash CommonNames_White.Cedar CommonNames_White.Pine CommonNames_Yellow.Birch LakeRiver_River
feature_infos=[4:64] [1.5:68.099999999999994] none [0:1] none none none none none none none [0:1] none none [0:1] none [0:1] [0:1] [0:1] none none none [0:1] none [0:1] [0:1]
tree_sizes=569 1597 563 1604 1387 566 756 564 1071 1810 672 1379 563 570 1400 671 674 1082 1604 1377 458 1595 1402 672 673 569 971 1708 970 1602 864 570 1079 568 568 2101 1178 566 763 568 461 460 679 1389 459 1603 2435 572 1282 1726 765 1810 1288 568 1085 567 564 570 564 1600 675 1935 876 1502 571 1397 569 1617 1075 1610 980 566 565 1612 1706 1834 1816 569 1297 1393 568 1710 572 2049 874 1614 876 568 679 983 570 1722 2021 566 1304 569 1303 1405 1083 1621 569 572 1517 568 1508 984 572 1515 572 1723 870 1407 569 1623 573 1509 681 573 980 577 1500 570 572 1618 679 571 2028 1187 688 571 572 1525 791 1834 993 1413 579 766 1094 1303 575 573 1208 679 1100 575 882 1517 575 1509 888 1619 986 976 569 2143 1620 574 1926 1406 1087 1303 1209 1629 462 573 987 1300 690 1080 988 1725 985 572 1199 573 1310 572 574 1526 578 572 1206 1296 682 1307 993 1410 1622 570 997 1085 575 576 999 1414 571 572 970 972 686 575 882 1413 576 1415 886 575 576 576 889 1308 581 576 1087 579 574 574 575 1537 1515 570 985 571 575 574 584 1531 1309 577 1927 572 1091 691 573 1409 679 1407 880 570 874 576 575 1086 573 579 980 580 683 571 578 1536 578 1100 1510 574 1725 578 998 1432 787 1312 880 881 578 575 777 1417 687 579 1087 576 572 574 1297 1202 1089 573 1084 579 581 576 576 1533 1534 577 1090 579 1209 577 982 671 1527 1100 1089 573 687 574 576 1083 578 1295 2240 571 996 1084 1194 1715 1519 575 1192 574 576 1302 774 1650 468 580 1219 464 573 467 1830 1423 1199 575 887 578 992 579 578 1204 1002 576 1198 768 1412 573 574 1202 467 885 878 877 1419 575 682 782 887 574 982 681 680 573 573 1320 578 572 1001 580 1007 577 580 1312 681 577 895 573 697 1195 574 1427 1100 576 885 576 1830 576 576 1413 574 685 986 584 886 1209 890 1320 1198 572 1098 1409 582 573 1511 1099 683 1421 983 889 679 979 989 1525 681 576 1188 577 1202 577 769 1536 582 689 1107 575 776 577 579 1200 573 581 985 576 990 573 572 1093 578 990 1105 578 683 578 1004 994 584 581 992 582 1197 684 576 1310 686 690 1104 579 1103 996 1316 1614 467 1093 984 580 578 682 993 1302 683 1323 997 577 575 463 581 1643 580 884 990 1195 571 1499 892 1195 679 574 1203 1094 682 681 989 1430 577 1304 1191 569 1205 570 576 1204 1095 892 1103 575 572 991 573 1214 794 689 772 579 682 573 574 1196 575 576 1833 577 580 1941 995 1213 580 1205 1203 577 571 1096 571 994 571 1945 772 575 572 575 575 1619 1832 579 1623 1322 890 579 577 1317 1092 1211 1620 580 572 471 575 889 578 578 986 578 1102 1208 575 1111 1097 579 1201 990 578 982 572 1723 690 876 985 575 570 574 1186 1916 581 995 993 576 689 575 986 1095 877 575 983 576 1194 1106 1516 992 578 1207 994 1314 579 579 578 669 579 693 990 977 1613 1209 568 1541 689 991 888 580 691 573 576 889 991 1538 990 574 1092 576 581 991 579 580 1000 1399 581 1204 572 998 676 576 993 575 889 576 578 1205 1094 899 1422 582 2137 886 571 1203 1722 1222 1208 883 891 583 890 1099 578 582 783 578 568 573 574 1655 1094 574 1293 573 1102 570 577 1328 692 577 1208 579 578 578 993 1209 575 574 990 576 576 466 576 1202 683 579 1001 1098 997 672 574 1209 795 1003 984 773 685 1657 572 2157 572 891 1197 1511 571 573 576 888 579 578 1615 777 1218 1194 578 977 993 575 1299 685 1108 467 465 1821 579 895 997 1010 1424 1004 688 1102 680 575 997 572 575 462 570 1326 580 1417 1096 890 1104 578 1103 1105 582 2483 768 1102 767 575 577 1931 572 573 989 578 467 1105 1098 1209 875 1304 1001 577 688 984 576 1006 582 1207 1092 580 891 466 677 890 1199 1086 1093 1628 1191 1093 681 1421 573 578 1102 879 681 575 569 772 984 776 665 1092 779 579 575 780 573 574 979 581 1101 579 576 1201 1209 1102 1102 576 685 464 578 1110 875 578 880 577 572 679 1204 893 583 998 896 581 1103 1723 998 786 1104 466 995 577 885 583 580 1723 582 576 997 779 681 1005 569 991 1085 573 1818 883 574 575 572 1104 685 576 879 784 690 578 574 993 795 877 1323 1115 693 790 581 672 583 888 1518 586 887 689 577 670 689 577 1095 1618 685 984 575 898 575 582 1001 575 683 570 574 997 572 682 1210 573 465 688 580 779 687 581 882 578 1097 572 576 1208 995 465 1106 580 1201 574 587 993 581 463 992 688 697 984 580 999 580 993 1625 577 576 574 579 997 1004 585 991 466 466 467 575 674 883 889 1502 576 465 576 575 877 574 685 885 578 574 468 576 1504 573 1009 993 583 577 578 583 788 577 897 1632 584 982 1111 582 1209 1102 577 997 581 780 577 572 1330 577 1211 1211 897 579 581 577 780 881 578 991 469 687 1216 1105 894 998 575 1204 467 574 468 679 888 779 1838 1203 578 576 575 684 1099 893 579 1196 888 579 574 686 881 1094 1313 772 574 1201 990 575 996 1712 571 1597 579 578 468 582 1107 1206 995 989 668 687 1000 577 1426 580 581 885 575 681 578 575 1226 579 776 778 1107 468 676 783 988 580 895 1097 576 687 574 576 985 578 573 1098 669 997 578 577 1109 572 578 886 574 572 995 893 781 580 885 995 582 1199 467 579 1101 579 462 987 890 687 464 573 897 688 789 983 573 1194 575 776 1102 780 885 1103 580 775 467 1412 894 577 1314 1088 581 684 577 575 1325 684 576 878 574 572 575 883 1103 577 575 994 891 882 1099 578 1201 572 575 987 1104 882 578 579 784 992 995 996 994 469 573 577 1509 680 577 990 1006 781 577 883 679 684 1112 1325 888 686 469 996 1098 994 582 991 584 1000 673 578 1508 685 887 991 572 1085 576 579 899 1352 1004 887 1002 684 689 689 1333 580 577 1297 583 690 578 580 1019 1000 1445 1219 1098 697 581 578 897 579 572 1097 878 573 696 888 997 996 587 1104 582 580 1519 694 1002 581 577 992 670 465 780 998 1208 805 993 884 578 578 574 577 675 889 577 1106 465 987 779 999 1663 585 687 1097 783 685 465 779 1212 573 894 994 895 1115 580 585 1227 888 580 889 686 1085 787 581 896 688 578 1935 586 578 579 579 884 896 997 1106 681 1514 575 674 672 688 574 888 575 1327 573 576 1399 989 576 990 579 887 574 574 1215 573 576 876 467 574 467 886 1101 575 576 998 1100 684 667 578 1004 1096 581 1510 581 1098 580 580 1111 873 574 987 571 577 576 783 1206 575 1311 985 996 993 469 888 894 1205 574 1095 1510 578 575 580 1963 578 999 776 581 576 577 568 1116 574 901 990 883 685 574 579 1305 571 573 987 578 583 579 775 892 994 575 1611 891 578 577 577 789 1106 574 778 1211 573 579 577 1108 584 579 992 685 687 576 577 1002 1092 581 985 579 576 577 880 1199 577 572 1076 575 1090 581 578 679 577 587 892 577 990 672 579 890 573 578 986 466 574 573 576 989 577 579 778 668 1203 575 883 1729 799 578 891 574 570 577 577 989 583 1835 775 777 581 573 572 1212 579 902 891 576 683 783 582 985 578 1214 991 581 1303 573 575 780 1086 894 887 582 994 575 576 1001 890 982 1512 466 1524 468 576 1204

Tree=0
num_leaves=4
num_cat=0
split_feature=17 18 14
split_gain=81.9883 35.3231 0.0281973
threshold=1.0000000180025095e-35 1.0000000180025095e-35 1.0000000180025095e-35
decision_type=2 2 2
left_child=1 2 -1
right_child=-2 -3 -4
leaf_value=-0.78214661036628819 -0.90585454303916457 -0.6900533255264143 -0.77411542769707864
leaf_weight=132.81564006209373 43.267331689596176 60.272899866104126 4.5204674899578086
leaf_count=617 201 280 21
internal_value=-0.783276 -0.753873 -0.781882
internal_weight=0 197.609 137.336
internal_count=1119 918 638
is_linear=0
shrinkage=1


Tree=1
num_leaves=14
num_cat=0
split_feature=1 1 11 1 1 18 18 1 1 1 1 1 1
split_gain=156.244 31.4799 5.92838 2.43465 2.1686 0.378823 0.329531 0.0599979 0.120477 0.000594158 0.000168357 0.000382168 0.000344787
threshold=5.5000000000000009 10.000000000000002 1.0000000180025095e-35 13.200000000000001 2.5000000000000004 1.0000000180025095e-35 1.0000000180025095e-35 29.300000000000001 34.350000000000001 17.450000000000003 22.150000000000002 19.450000000000003 25.900000000000002
decision_type=2 2 2 2 2 2 2 2 2 2 2 2 2
left_child=4 2 -2 -3 6 -6 -1 9 -9 -5 11 -11 -12
right_child=1 3 -4 7 5 -7 -8 8 -10 10 12 -13 -14
leaf_value=0.061886923763377524 -0.014465593850755409 -0.102406977687235 -0.12639404707150273 -0.1431614346841322 0.10599515472799258 0.090295152022418224 0.077824604334475411 -0.12274818975794038 -0.14460422206577048 -0.14473796382492332 -0.14517563552408813 -0.1434647790056342 -0.14402590506744756
leaf_weight=22.235888004302979 56.054987773299217 28.822213262319565 5.1684225797653189 5.4650988578796413 33.091268390417099 28.696184948086739 31.143146455287933 4.4912926554679853 5.7523211985826492 4.2662245184183138 5.3546219319105131 5.2698241472244263 5.0855503082275391
leaf_count=104 263 136 24 26 155 129 140 21 27 20 25 25 24
internal_value=0 -0.0752765 -0.0239145 -0.124024 0.0859491 0.0987035 0.0711855 -0.141484 -0.135021 -0.144085 -0.144338 -0.144034 -0.144616
internal_weight=0 125.731 61.2234 64.5071 115.166 61.7875 53.379 35.6849 10.2436 25.4413 19.9762 9.53605 10.4402
internal_count=1119 591 287 304 528 284 244 168 48 120 94 45 49
is_linear=0
shrinkage=0.1


Tree=2
num_leaves=4
num_cat=0
split_feature=17 22 14
split_gain=65.139 6.08108 0.171762
threshold=1.0000000180025095e-35 1.0000000180025095e-35 1.0000000180025095e-35
decision_type=2 2 2
left_child=1 2 -1
right_child=-2 -3 -4
leaf_value=0.028125018853337652 -0.11430074496053635 -0.083603279100363678 0.0084113872298491581
leaf_weight=190.49214224517345 40.431050166487694 5.0384323596954337 4.5246884673833838
leaf_count=873 201 24 21
internal_value=0 0.0248653 0.0276676
internal_weight=0 200.055 195.017
internal_count=1119 918 894
is_linear=0
shrinkage=0.1


Tree=3
num_leaves=14
num_cat=0
split_feature=1 1 16 17 17 1 1 17 1 1 17 1 1
split_gain=121.838 27.8064 21.0397 18.0728 10.4368 3.58914 2.39029 1.66804 0.0522189 0.114106 0.0421424 6.21562e-05 2.53768e-05
threshold=5.5000000000000009 10.000000000000002 1.0000000180025095e-35 1.0000000180025095e-35 1.0000000180025095e-35 2.5000000000000004 13.200000000000001 1.0000000180025095e-35 29.300000000000001 34.350000000000001 1.0000000180025095e-35 22.950000000000003 19.450000000000003
decision_type=2 2 2 2 2 2 2 2 2 2 2 2 2
left_child=2 4 3 5 -2 -1 7 -3 10 -10 11 12 -8
right_child=1 6 -4 -5 -6 -7 8 -9 9 -11 -12 -13 -14
leaf_value=0.05621428154167122 -0.00026166381242594128 -0.078876621042420048 0.27553326556825125 -0.072240467316302681 -0.10322735851425642 0.093244656666925885 -0.14041992511221021 -0.13254447727155172 -0.11676728863778728 -0.13863935991396456 -0.13122672669125499 -0.14068364504368508 -0.14009610047178342
leaf_weight=49.055526450276375 48.052896603941917 18.970799490809441 4.9224384725093833 8.9254414439201337 12.380546569824217 56.115370258688927 5.9424775242805534 8.3361708372831362 4.2751539796590787 5.3955755978822708 7.0720672011375418 6.5777988433837882 4.0826066136360168
leaf_count=216 223 91 22 44 64 246 29 45 21 27 39 32 20
internal_value=0 -0.0693632 0.0731111 0.0643781 -0.0213555 0.0759723 -0.117197 -0.0952601 -0.135162 -0.12897 -0.137691 -0.140445 -0.140288
internal_weight=0 121.086 119.019 114.096 60.4334 105.171 60.6527 27.307 33.3457 9.67073 23.675 16.6029 10.0251
internal_count=1119 591 528 506 287 462 304 136 168 48 120 81 49
is_linear=0
shrinkage=0.1


Tree=4
num_leaves=12
num_cat=0
split_feature=0 3 17 17 3 0 0 0 0 0 0
split_gain=115.799 39.2778 41.3831 8.6747 13.1527 3.46952 0.728363 0.417961 0.267338 0.0454858 0.135951
threshold=9.0000000000000018 1.0000000180025095e-35 1.0000000180025095e-35 1.0000000180025095e-35 1.0000000180025095e-35 29.000000000000004 19.000000000000004 39.000000000000007 19.000000000000004 29.000000000000004 19.000000000000004
decision_type=2 2 2 2 2 2 2 2 2 2 2
left_child=1 2 -1 4 5 6 -2 -7 -6 10 -5
right_child=3 -3 -4 9 8 7 -8 -9 -10 -11 -12
leaf_value=0.11578835808777191 -0.031772874456594893 -0.10190517400602217 -0.071829653375160105 -0.12477531895772978 -0.11681089613394878 -0.067931148101694636 -0.006980443667907614 -0.10495563032828076 -0.14224455369514541 -0.13169381653266299 -0.10304824245732408
leaf_weight=91.359783068299294 49.523361057043076 11.649700149893759 13.492657437920569 14.66222725808621 16.013481527566913 7.3906830102205259 15.576948091387747 5.1902015060186386 5.5703994631767264 4.5395545959472647 3.5838308930397025
leaf_count=405 226 55 75 81 74 34 72 25 27 25 20
internal_value=0 0.072291 0.0916452 -0.0670915 -0.0543186 -0.0351312 -0.0258406 -0.0832055 -0.123375 -0.122736 -0.120508
internal_weight=0 116.502 104.852 122.051 99.2651 77.6812 65.1003 12.5809 21.5839 22.7856 18.2461
internal_count=1119 535 480 584 458 357 298 59 101 126 101
is_linear=0
shrinkage=0.1


Tree=5
num_leaves=4
num_cat=0
split_feature=11 18 25
split_gain=28.4592 10.7269 5.02244
threshold=1.0000000180025095e-35 1.0000000180025095e-35 1.0000000180025095e-35
decision_type=2 2 2
left_child=1 2 -1
right_child=-2 -3 -4
leaf_value=-0.03491208352518145 -0.13126477136257564 0.039602130374474243 0.0039472378747233069
leaf_weight=49.23150135576725 16.232854768633842 66.120985135436058 102.52424739301205
leaf_count=247 78 278 505
internal_value=0 0.00598708 -0.00865922
internal_weight=0 217.877 151.756
internal_count=1108 1030 752
is_linear=0
shrinkage=0.1


Tree=6
num_leaves=6
num_cat=0
split_feature=0 24 0 0 0
split_gain=85.7873 40.3487 1.82273 0.641395 0.31601
threshold=9.0000000000000018 1.0000000180025095e-35 29.000000000000004 19.000000000000004 49.000000000000007
decision_type=2 2 2 2 2
left_child=1 -1 3 -2 -4
right_child=2 -3 4 -5 -6
leaf_value=0.037092558835489328 -0.06254774479832538 0.22644253524476254 -0.084634078198506185 -0.042958939701905161 -0.11405786856447336
leaf_weight=103.48981161415577 78.17693792283535 12.626893386244772 12.510290101170542 21.260979577898979 5.1537955105304709
leaf_count=471 384 56 63 106 28
internal_value=0 0.0576831 -0.0636178 -0.0583594 -0.093219
internal_weight=0 116.117 117.102 99.4379 17.6641
internal_count=1108 527 581 490 91
is_linear=0
shrinkage=0.1


Tree=7
num_leaves=4
num_cat=0
split_feature=24 18 16
split_gain=21.3097 21.6871 26.0699
threshold=1.0000000180025095e-35 1.0000000180025095e-35 1.0000000180025095e-35
decision_type=2 2 2
left_child=1 2 -1
right_child=-2 -3 -4
leaf_value=-0.047515636698578209 0.092641996697404139 0.034560955958594715 0.10372387254859186
leaf_weight=131.66951096057892 21.165640160441399 66.638903871178627 12.477577045559881
leaf_count=678 94 278 58
internal_value=0 -0.0126149 -0.0344241
internal_weight=0 210.786 144.147
internal_count=1108 1014 736
is_linear=0
shrinkage=0.1


Tree=8
num_leaves=9
num_cat=0
split_feature=0 17 17 0 0 0 0 0
split_gain=67.5029 22.1663 8.23869 1.44654 0.382545 0.130783 0.0395006 0.129678
threshold=9.0000000000000018 1.0000000180025095e-35 1.0000000180025095e-35 29.000000000000004 19.000000000000004 39.000000000000007 29.000000000000004 19.000000000000004
decision_type=2 2 2 2 2 2 2 2
left_child=1 -1 3 4 -2 -5 7 -4
right_child=2 -3 6 5 -6 -7 -8 -9
leaf_value=0.065452208600420975 -0.043832673818341578 -0.073825777096405643 -0.11722289959188759 -0.068937595583670755 -0.027034040676024496 -0.090102086601742126 -0.12387070742801819 -0.095201848220468718
leaf_weight=104.74387694895267 62.055233955383301 12.826165750622748 13.377657875418668 8.2745485752820951 17.345179304480553 4.5115909427404395 4.0112971216440192 3.3423123061656943
leaf_count=452 299 75 85 41 85 24 26 21
internal_value=0 0.0502578 -0.0579991 -0.0451898 -0.040163 -0.0764055 -0.114959 -0.112821
internal_weight=0 117.57 112.918 92.1866 79.4004 12.7861 20.7313 16.72
internal_count=1108 527 581 449 384 65 132 106
is_linear=0
shrinkage=0.1


Tree=9
num_leaves=16
num_cat=0
split_feature=1 11 1 1 25 1 25 25 1 1 1 25 1 1 1
split_gain=72.8522 15.6771 11.0654 4.00583 3.28065 1.68955 0.412958 0.14728 0.13658 0.0608961 0.183173 0.00427934 0.00365181 0.000803638 2.25988e-05
threshold=10.000000000000002 1.0000000180025095e-35 5.5000000000000009 2.5000000000000004 1.0000000180025095e-35 13.200000000000001 1.0000000180025095e-35 1.0000000180025095e-35 18.250000000000004 30.400000000000002 26.950000000000003 1.0000000180025095e-35 36.70000000000001 20.850000000000005 23.800000000000001
decision_type=2 2 2 2 2 2 2 2 2 2 2 2 2 2 2
left_child=1 2 3 11 -4 7 -5 -2 -7 10 13 -1 -11 -10 -15
right_child=5 -3 4 6 -6 8 -8 -9 9 12 -12 -13 -14 14 -16
leaf_value=0.034887347408622281 -0.095013022026990107 -0.11563924169515466 -0.052869337710288011 0.087049204886510689 0.0093559681144200369 -0.10812055409718027 0.065976970513548963 -0.079493853792730829 -0.12883668243784774 -0.13068010783471007 -0.10125433369740451 0.03230033653133136 -0.13517304762071439 -0.12691944418028331 -0.12725744475260525
leaf_weight=7.3873800039291373 10.665207669138908 7.2297048121690741 10.599214583635328 11.504138469696043 42.232480958104134 5.792383253574374 48.540892273187637 14.333720862865448 3.7515517026186016 3.6710225492715827 3.3886691927909842 47.555743351578712 3.5666314214468002 4.5898409485816938 3.4763317555189133
leaf_count=34 60 35 56 53 207 37 210 80 22 21 20 204 20 28 21
internal_value=0 0.0285434 0.0347548 0.0521602 -0.00312781 -0.105048 0.0700142 -0.0861147 -0.121811 -0.125344 -0.12175 0.0326482 -0.132894 -0.127628 -0.127065
internal_weight=0 175.05 167.82 114.988 52.8317 53.2354 60.045 24.9989 28.2364 22.444 15.2064 54.9431 7.23765 11.8177 8.06617
internal_count=1108 799 764 501 263 309 263 140 169 132 91 238 41 71 49
is_linear=0
shrinkage=0.1


Tree=10
num_leaves=5
num_cat=0
split_feature=3 25 25 14
split_gain=35.056 9.48105 0.748305 0.165889
threshold=1.0000000180025095e-35 1.0000000180025095e-35 1.0000000180025095e-35 1.0000000180025095e-35
decision_type=2 2 2 2
left_child=1 3 -2 -1
right_child=2 -3 -4 -5
leaf_value=-0.026912421007964378 -0.12627301466546467 0.02497291474378802 -0.092867161604550524 -0.0073031185192976942
leaf_weight=46.261335290968418 10.179271832108499 146.4619614854455 19.649607673287392 4.7578384578227988
leaf_count=255 54 682 101 22
internal_value=0 0.0120408 -0.104267 -0.0250837
internal_weight=0 197.481 29.8289 51.0192
internal_count=1114 959 155 277
is_linear=0
shrinkage=0.1


Tree=11
num_leaves=12
num_cat=0
split_feature=1 1 18 1 1 1 1 1 1 1 1
split_gain=59.0017 10.8287 3.59532 3.34014 1.77695 0.104296 0.117067 0.115109 0.0166726 0.00451527 0.000245728
threshold=10.000000000000002 5.5000000000000009 1.0000000180025095e-35 2.5000000000000004 13.200000000000001 29.650000000000002 26.950000000000003 18.250000000000004 2.5000000000000004 36.70000000000001 23.350000000000005
decision_type=2 2 2 2 2 2 2 2 2 2 2
left_child=1 2 3 -1 -2 6 7 -6 -4 -7 -9
right_child=4 -3 8 -5 5 9 -8 10 -10 -11 -12
leaf_value=0.029104078803107392 -0.079673044355006065 -0.011367218043970808 0.026709680682729105 0.079661032364366557 -0.10616702917103829 -0.12542310416056349 -0.095808695116734538 -0.12430206649685188 0.023469384287683599 -0.13042873537650276 -0.12326018339779338
leaf_weight=21.334662467241287 23.661446817219257 57.971085712313652 33.726704880595207 33.724717155098915 5.8936533257365289 3.7884328588843337 3.0714399218559256 5.9999701678752881 30.007811442017555 3.4368602186441422 3.6351925730705261
leaf_count=99 142 292 138 154 40 24 19 39 122 21 24
internal_value=0 0.0240636 0.0413537 0.060071 -0.0994699 -0.117608 -0.113647 -0.117175 0.0251841 -0.127804 -0.123909
internal_weight=0 176.765 118.794 55.0594 49.487 25.8255 18.6003 15.5288 63.7345 7.22529 9.63516
internal_count=1114 805 513 253 309 167 122 103 260 45 63
is_linear=0
shrinkage=0.1


Tree=12
num_leaves=4
num_cat=0
split_feature=3 11 14
split_gain=29.4832 22.7302 0.363694
threshold=1.0000000180025095e-35 1.0000000180025095e-35 1.0000000180025095e-35
decision_type=2 2 2
left_child=1 2 -1
right_child=-2 -3 -4
leaf_value=0.02116441482019963 -0.098785377763003432 -0.1108312135372671 -0.0070030462246917294
leaf_weight=177.34740918874741 27.988093540072441 14.221826180815695 4.7055824398994437
leaf_count=855 155 82 22
internal_value=0 0.0109249 0.0204364
internal_weight=0 196.275 182.053
internal_count=1114 959 877
is_linear=0
shrinkage=0.1


Tree=13
num_leaves=4
num_cat=0
split_feature=16 18 14
split_gain=9.96524 6.58309 0.0899778
threshold=1.0000000180025095e-35 1.0000000180025095e-35 1.0000000180025095e-35
decision_type=2 2 2
left_child=1 2 -1
right_child=-2 -3 -4
leaf_value=-0.020392659869468685 0.082524232728884386 0.018034974225226683 -0.0063169269014864086
leaf_weight=138.35258895158768 12.965620324015616 67.093182519078255 4.6955720484256736
leaf_count=759 60 273 22
internal_value=0 -0.0078091 -0.0199306
internal_weight=0 210.141 143.048
internal_count=1114 1054 781
is_linear=0
shrinkage=0.1


Tree=14
num_leaves=12
num_cat=0
split_feature=0 17 17 25 25 0 0 0 25 0 25
split_gain=58.9388 14.4684 6.80219 5.94757 1.95902 10.3705 1.18083 0.106795 0.0621992 0.0465754 0.0178915
threshold=9.0000000000000018 1.0000000180025095e-35 1.0000000180025095e-35 1.0000000180025095e-35 1.0000000180025095e-35 19.000000000000004 19.000000000000004 29.000000000000004 1.0000000180025095e-35 29.000000000000004 1.0000000180025095e-35
decision_type=2 2 2 2 2 2 2 2 2 2 2
left_child=1 3 4 -1 5 -2 -6 -8 -3 10 -4
right_child=2 8 9 -5 6 -7 7 -9 -10 -11 -12
leaf_value=0.018053206531030857 -0.124911539466472 -0.071990650171965279 -0.10427535211006503 0.072901796384965814 -0.026436398582156975 0.023724274943174108 -0.048166940790869764 -0.061644309780967244 -0.056272628794868398 -0.12140705202686258 -0.1113511006253525
leaf_weight=26.53987443447113 13.041602157056333 3.919705405831337 5.9140371754765519 77.505749627947807 44.431288830935955 7.3337669521570197 13.649086579680445 10.328674681484697 7.038272097706793 3.4728169143199912 9.0298814624547958
leaf_count=130 86 27 43 321 211 39 70 56 43 25 63
internal_value=0 0.0474002 -0.0556673 0.0589111 -0.0441947 -0.0714126 -0.0360879 -0.0539725 -0.061895 -0.110975 -0.108551
internal_weight=0 115.004 107.201 104.046 88.7844 20.3754 68.4091 23.9778 10.958 18.4167 14.9439
internal_count=1114 521 593 451 462 125 337 126 70 131 106
is_linear=0
shrinkage=0.1


Tree=15
num_leaves=5
num_cat=0
split_feature=11 16 25 25
split_gain=13.0833 5.32004 2.8373 0.931354
threshold=1.0000000180025095e-35 1.0000000180025095e-35 1.0000000180025095e-35 1.0000000180025095e-35
decision_type=2 2 2 2
left_child=1 3 -3 -1
right_child=-2 2 -4 -5
leaf_value=-0.010631850762893587 -0.10157225546184118 0.0086536354424750443 0.10508222421846208 0.0067433016178691796
leaf_weight=38.502289324998856 11.625134758651255 4.8578748852014533 8.2053532451391202 155.22494115680456
leaf_count=223 74 25 35 748
internal_value=0 0.00745515 0.0692229 0.00329008
internal_weight=0 206.79 13.0632 193.727
internal_count=1105 1031 60 971
is_linear=0
shrinkage=0.1


Tree=16
num_leaves=5
num_cat=0
split_feature=17 25 18 25
split_gain=31.6726 2.9757 2.87434 0.220278
threshold=1.0000000180025095e-35 1.0000000180025095e-35 1.0000000180025095e-35 1.0000000180025095e-35
decision_type=2 2 2 2
left_child=1 -1 -3 -2
right_child=3 2 -4 -5
leaf_value=-0.0065515985658406439 -0.10912012225945106 0.036086708968118823 0.0078873077722936488 -0.09059481460881566
leaf_weight=44.018997110426426 9.7942678928375262 78.616375930607319 66.908932596445084 18.623098537325859
leaf_count=244 76 384 272 129
internal_value=0 0.0162302 0.0231213 -0.0969797
internal_weight=0 189.544 145.525 28.4174
internal_count=1105 900 656 205
is_linear=0
shrinkage=0.1


Tree=17
num_leaves=9
num_cat=0
split_feature=0 11 11 0 18 0 18 0
split_gain=45.3207 9.91373 2.54008 2.7502 3.23825 1.23457 0.908024 0.412031
threshold=9.0000000000000018 1.0000000180025095e-35 1.0000000180025095e-35 29.000000000000004 1.0000000180025095e-35 19.000000000000004 1.0000000180025095e-35 49.000000000000007
decision_type=2 2 2 2 2 2 2 2
left_child=1 6 3 4 5 -2 -1 -5
right_child=2 -3 -4 7 -6 -7 -8 -9
leaf_value=0.059232969390217272 -0.034914525762833923 -0.080512455010417483 -0.11795653096392621 -0.071660769014876932 -0.073002027553784196 -0.0043883299065104065 0.040910486089612612 -0.10702091101449739
leaf_weight=60.449958011507988 43.469887591898441 6.0455174744129172 4.8632202297449103 10.681413084268568 18.739629477262497 19.056592777371407 48.949442461133003 4.765603393316268
leaf_count=296 264 35 39 61 79 104 196 31
internal_value=0 0.044146 -0.0474372 -0.0438911 -0.0365391 -0.0256109 0.0510348 -0.0825698
internal_weight=0 115.445 101.576 96.7131 81.2661 62.5265 109.399 15.447
internal_count=1105 527 578 539 447 368 492 92
is_linear=0
shrinkage=0.1


Tree=18
num_leaves=14
num_cat=0
split_feature=1 1 1 25 1 25 25 1 1 1 25 1 25
split_gain=50.8978 6.72546 5.46437 2.839 0.8458 0.260306 0.10922 0.160411 0.0939237 0.0265047 0.0111436 0.00122971 0.000329184
threshold=10.000000000000002 5.5000000000000009 2.5000000000000004 1.0000000180025095e-35 18.250000000000004 1.0000000180025095e-35 1.0000000180025095e-35 29.300000000000001 13.200000000000001 27.450000000000003 1.0000000180025095e-35 24.350000000000005 1.0000000180025095e-35
decision_type=2 2 2 2 2 2 2 2 2 2 2 2 2
left_child=1 2 10 -3 8 -4 7 11 12 -8 -1 -6 -2
right_child=4 3 5 -5 6 -7 9 -9 -10 -11 -12 -13 -14
leaf_value=0.018884392248379095 -0.084204925636293268 -0.045288184816648619 0.070749704302304359 0.0084696434705445623 -0.11711418472482721 0.054998207218662644 -0.11910685630990868 -0.090278247562463887 -0.099177061617563386 -0.13079575833889082 0.014854128575829816 -0.12013763079238193 -0.083378307289717124
leaf_weight=8.0038958191871625 7.8096066713333174 12.861583635210989 13.271220192313192 41.593789957463741 2.8220370188355464 50.09150455892086 4.3156238272786132 3.19455686211586 4.8509971499443045 3.5238799303770065 48.027910962700844 2.5706092789769173 12.57451669126749
leaf_count=38 57 79 62 207 24 214 33 24 39 23 205 20 80
internal_value=0 0.0248965 0.0381796 -0.00422719 -0.0981669 0.0582973 -0.115827 -0.108036 -0.0866711 -0.124361 0.0154298 -0.118555 -0.083695
internal_weight=0 173.85 119.395 54.4554 41.6618 63.3627 16.4267 8.5872 25.2351 7.8395 56.0318 5.39265 20.3841
internal_count=1105 805 519 286 300 276 124 68 176 56 243 44 137
is_linear=0
shrinkage=0.1


Tree=19
num_leaves=12
num_cat=0
split_feature=1 16 1 1 1 1 1 1 1 1 1
split_gain=43.537 11.4497 5.51613 5.53433 2.16487 0.866465 0.100565 0.07912 0.251621 0.000801566 7.89676e-05
threshold=10.000000000000002 1.0000000180025095e-35 5.5000000000000009 2.5000000000000004 5.5000000000000009 18.250000000000004 13.200000000000001 30.400000000000002 27.450000000000003 20.950000000000003 24.350000000000005
decision_type=2 2 2 2 2 2 2 2 2 2 2
left_child=1 2 3 -1 -3 6 -2 8 9 -7 -11
right_child=5 4 -4 -5 -6 7 -8 -9 -10 10 -12
leaf_value=0.0046103309863319356 -0.079383448094433984 0.17507407708350184 -0.011732081204841219 0.048568480185643206 0.079953357255700075 -0.11764580699544894 -0.095931440587145922 -0.12310301452537951 -0.077758047224683796 -0.11585374884319016 -0.11508235094907551
leaf_weight=53.458862751722336 19.394397228956226 4.9006946533918363 49.585880264639854 61.693493142724037 4.6752709448337555 2.5492789521813375 4.5302778258919707 5.1631851568818083 2.1742607355117798 2.8104400858283043 2.5142895504832268
leaf_count=232 137 20 266 267 20 21 39 39 16 25 23
internal_value=0 0.0223325 0.0161534 0.0281611 0.128633 -0.0943814 -0.0825169 -0.113042 -0.107872 -0.116188 -0.11549
internal_weight=0 174.314 164.738 115.152 9.57597 39.1361 23.9247 15.2115 10.0483 7.87401 5.32473
internal_count=1105 805 765 499 40 300 176 124 85 69 48
is_linear=0
shrinkage=0.1


Tree=20
num_leaves=3
num_cat=0
split_feature=3 17
split_gain=25.3689 29.2052
threshold=1.0000000180025095e-35 1.0000000180025095e-35
decision_type=2 2
left_child=1 -1
right_child=-2 -3
leaf_value=0.028124857857839761 -0.096006383120398359 -0.087916720323674521
leaf_weight=159.57665771991014 24.468216307461262 25.100074388086796
leaf_count=744 148 203
internal_value=0 0.0123532
internal_weight=0 184.677
internal_count=1095 947
is_linear=0
shrinkage=0.1


Tree=21
num_leaves=14
num_cat=0
split_feature=1 11 18 1 1 1 1 1 1 1 1 1 1
split_gain=29.1385 9.39773 3.85971 6.36789 2.02643 1.55511 0.155297 0.125021 0.0747587 0.247172 0.00588025 0.000696427 4.97162e-05
threshold=10.000000000000002 1.0000000180025095e-35 1.0000000180025095e-35 5.5000000000000009 2.5000000000000004 13.200000000000001 18.250000000000004 2.5000000000000004 29.300000000000001 34.350000000000001 26.750000000000004 20.850000000000005 23.800000000000001
decision_type=2 2 2 2 2 2 2 2 2 2 2 2 2
left_child=1 2 3 4 -1 -2 -7 -4 10 -10 11 -8 -13
right_child=5 -3 7 -5 -6 6 8 -9 9 -11 -12 12 -14
leaf_value=0.032006098694655233 -0.062793857770409925 -0.11053570984239391 0.0066264353710021907 0.0061742654653406392 0.072078236822741212 -0.086576273462274714 -0.11547725896458692 -0.0020315031076209703 -0.076325705479042757 -0.12079636174477473 -0.12016985796408491 -0.1129928613852854 -0.11367660716948774
leaf_weight=20.415461450815201 17.622144006192684 5.6319678649306288 32.513827353715897 46.498318500816822 33.04778815805912 3.6115898862481144 2.2833620309829694 34.24435493350029 2.3282636553049079 2.6983036771416664 2.0803879275918007 2.2663595378398895 2.0035369172692299
leaf_count=95 133 35 132 249 151 36 21 140 19 23 18 23 20
internal_value=0 0.0165121 0.0208039 0.0332382 0.0567763 -0.0836938 -0.105018 0.00218525 -0.109893 -0.100198 -0.115538 -0.114068 -0.113314
internal_weight=0 172.352 166.72 99.9616 53.4632 34.8939 17.2718 66.7582 13.6602 5.02657 8.63365 6.55326 4.2699
internal_count=1095 802 767 495 246 293 160 272 124 42 82 64 43
is_linear=0
shrinkage=0.1


Tree=22
num_leaves=12
num_cat=0
split_feature=0 3 3 0 0 25 25 25 25 0 25
split_gain=34.5392 13.5714 5.09104 2.64729 2.27979 5.66154 2.34528 1.7685 0.498616 0.374748 0.307976
threshold=9.0000000000000018 1.0000000180025095e-35 1.0000000180025095e-35 29.000000000000004 19.000000000000004 1.0000000180025095e-35 1.0000000180025095e-35 1.0000000180025095e-35 1.0000000180025095e-35 49.000000000000007 1.0000000180025095e-35
decision_type=2 2 2 2 2 2 2 2 2 2 2
left_child=1 8 3 4 5 -2 -6 -3 -1 -5 -4
right_child=2 7 10 9 6 -7 -8 -9 -10 -11 -12
leaf_value=0.035275327645453471 -0.10637597705109543 -0.12952442641300829 -0.12319615253772494 -0.064621060871778727 0.058815358873226746 -0.021326477923382815 -0.020714441552960341 -0.040011654519648533 0.052104390025689444 -0.10135285851181026 -0.090369779170236406
leaf_weight=22.717287823557854 9.6266018301248533 4.0225523337721825 3.964346505701541 9.1697977036237699 5.4883702844381341 41.866581156849861 11.430278725922108 4.8906718939542753 78.238643646240234 3.9843582957983008 10.241773456335066
leaf_count=123 90 25 31 56 35 214 58 26 340 31 66
internal_value=0 0.0378745 -0.0442843 -0.0346623 -0.0267626 -0.0372264 0.00508484 -0.0804089 0.0483175 -0.075747 -0.0995303
internal_weight=0 109.869 95.7721 81.566 68.4118 51.4932 16.9186 8.91322 100.956 13.1542 14.2061
internal_count=1095 514 581 484 397 304 93 51 463 87 97
is_linear=0
shrinkage=0.1


Tree=23
num_leaves=5
num_cat=0
split_feature=11 16 25 25
split_gain=11.5401 3.3526 0.539588 0.136915
threshold=1.0000000180025095e-35 1.0000000180025095e-35 1.0000000180025095e-35 1.0000000180025095e-35
decision_type=2 2 2 2
left_child=1 3 -3 -1
right_child=-2 2 -4 -5
leaf_value=-0.00441229938035817 -0.10944348794944668 0.028082824575726098 0.070720075418078732 0.0026353687671064538
leaf_weight=33.903403520584106 9.2664771005511266 4.7706251218914986 7.8557477295398694 147.44440896436572
leaf_count=221 78 27 34 735
internal_value=0 0.00478677 0.0546104 0.00131779
internal_weight=0 193.974 12.6264 181.348
internal_count=1095 1017 61 956
is_linear=0
shrinkage=0.1


Tree=24
num_leaves=5
num_cat=0
split_feature=17 11 25 25
split_gain=18.4206 12.3712 0.0763249 0.00817642
threshold=1.0000000180025095e-35 1.0000000180025095e-35 1.0000000180025095e-35 1.0000000180025095e-35
decision_type=2 2 2 2
left_child=1 3 -2 -1
right_child=2 -3 -4 -5
leaf_value=0.017793319050574231 -0.075970135662007457 -0.10662574937696084 -0.088242001956183369 0.0160018337888501
leaf_weight=31.15948686003685 7.4838758148252973 8.5949001759290677 15.700554359704256 139.68057043105364
leaf_count=174 74 78 129 640
internal_value=0 0.0104391 -0.0842807 0.0163286
internal_weight=0 179.435 23.1844 170.84
internal_count=1095 892 203 814
is_linear=0
shrinkage=0.1


Tree=25
num_leaves=4
num_cat=0
split_feature=24 11 14
split_gain=9.5063 4.81546 0.206003
threshold=1.0000000180025095e-35 1.0000000180025095e-35 1.0000000180025095e-35
decision_type=2 2 2
left_child=1 2 -1
right_child=-2 -3 -4
leaf_value=-0.0044944487460858882 0.063830601700388817 -0.082094814155449169 -0.027008537553731816
leaf_weight=171.91760805249214 20.108182899653912 8.4988534674048406 4.1624951511621466
leaf_count=928 90 81 20
internal_value=0 -0.00857524 -0.00502668
internal_weight=0 184.579 176.08
internal_count=1119 1029 948
is_linear=0
shrinkage=0.1


Tree=26
num_leaves=8
num_cat=0
split_feature=0 3 3 0 0 0 0
split_gain=23.1009 10.1456 4.64971 2.08502 1.64428 0.366578 0.0257954
threshold=9.0000000000000018 1.0000000180025095e-35 1.0000000180025095e-35 29.000000000000004 19.000000000000004 19.000000000000004 49.000000000000007
decision_type=2 2 2 2 2 2 2
left_child=1 -1 3 4 -2 -4 -5
right_child=2 -3 5 6 -6 -7 -8
leaf_value=0.038399041482245433 -0.030808147071528805 -0.070189846001083314 -0.082061801335564247 -0.062784627028526052 0.0055491798556773593 -0.12020981424761271 -0.072603349312719875
leaf_weight=102.30849824845791 48.671989407390356 9.3941567540168744 11.015456207096575 8.9249063953757268 16.709671720862389 3.265771120786666 3.8212835676968089
leaf_count=480 302 56 75 55 92 27 32
internal_value=0 0.0292668 -0.0383196 -0.0287292 -0.0215163 -0.0907853 -0.0657283
internal_weight=0 111.703 92.4091 78.1279 65.3817 14.2812 12.7462
internal_count=1119 536 583 481 394 102 87
is_linear=0
shrinkage=0.1


Tree=27
num_leaves=15
num_cat=0
split_feature=1 24 18 1 1 24 1 1 1 1 1 1 1 1
split_gain=28.6555 7.16981 3.5273 7.48374 3.58249 1.59016 0.167293 0.13803 0.212825 0.16413 0.0577415 0.0381463 0.000638084 5.79664e-05
threshold=10.000000000000002 1.0000000180025095e-35 1.0000000180025095e-35 5.5000000000000009 2.5000000000000004 1.0000000180025095e-35 29.650000000000002 25.900000000000002 18.250000000000004 16.300000000000001 2.5000000000000004 5.5000000000000009 22.150000000000002 35.95000000000001
decision_type=2 2 2 2 2 2 2 2 2 2 2 2 2 2
left_child=1 2 3 4 -1 6 7 8 9 -2 -4 -3 -10 -8
right_child=5 11 10 -5 -6 -7 13 -9 12 -11 -12 -13 -14 -15
leaf_value=0.013382053659351398 -0.092743278624303441 0.086180032964859959 -0.011672247786909423 -0.011891373729868475 0.068309847575254379 -0.030639969114622745 -0.11513301548688211 -0.067875990707891881 -0.11090273818761708 -0.062501002172830847 -0.005752237151680468 0.075907402196845747 -0.11308365240462533 -0.11435570265538075
leaf_weight=19.310650147497654 15.068889215588582 5.6164123266935322 33.226110175251961 37.525854863226414 30.833806462585926 4.3826874792575827 1.9785714112222188 2.1123096346855155 2.9616308808326712 2.0371723510324946 32.681064769625664 10.14323191344738 2.4523920938372612 1.862410996109247
leaf_count=95 136 24 136 229 146 23 20 23 36 25 135 43 27 21
internal_value=0 0.0153339 0.00874231 0.0218824 0.0471571 -0.0867139 -0.095345 -0.0923181 -0.0946107 -0.0891417 -0.00873672 0.0795684 -0.111891 -0.114756
internal_weight=0 169.337 153.577 87.6703 50.1445 32.8561 28.4734 24.6324 22.5201 17.1061 65.9072 15.7596 5.41402 3.84098
internal_count=1119 808 741 470 241 311 288 247 224 161 271 67 63 41
is_linear=0
shrinkage=0.1


Tree=28
num_leaves=8
num_cat=0
split_feature=0 3 3 0 0 0 0
split_gain=18.9759 8.07193 4.28337 1.82357 1.21861 0.351729 0.0185848
threshold=9.0000000000000018 1.0000000180025095e-35 1.0000000180025095e-35 29.000000000000004 19.000000000000004 19.000000000000004 49.000000000000007
decision_type=2 2 2 2 2 2 2
left_child=1 -1 3 4 -2 -4 -5
right_child=2 -3 5 6 -6 -7 -8
leaf_value=0.034487470939506375 -0.027618166415077985 -0.064957663587437639 -0.078944111690196606 -0.059199778541984362 0.0038316333718315617 -0.11821450030647354 -0.067790241146047578
leaf_weight=101.82976322621107 47.593020424246788 8.8735266849398595 10.49614120274782 8.5915727317333204 16.624042503535748 2.9139268696308127 3.562711924314498
leaf_count=480 302 56 75 55 92 27 32
internal_value=0 0.0265164 -0.0353519 -0.0261992 -0.0194767 -0.0874773 -0.0617178
internal_weight=0 110.703 89.7814 76.3713 64.2171 13.4101 12.1543
internal_count=1119 536 583 481 394 102 87
is_linear=0
shrinkage=0.1


Tree=29
num_leaves=14
num_cat=0
split_feature=1 18 1 22 1 1 1 1 1 1 1 1 1
split_gain=24.1797 5.88695 3.98918 2.77485 2.59551 0.708383 0.0975389 0.302785 0.0545683 0.00379744 0.00400968 9.31995e-05 0.000278189
threshold=10.000000000000002 1.0000000180025095e-35 5.5000000000000009 1.0000000180025095e-35 2.5000000000000004 13.200000000000001 29.300000000000001 34.350000000000001 2.5000000000000004 25.900000000000002 16.950000000000006 22.150000000000002 19.900000000000002
decision_type=2 2 2 2 2 2 2 2 2 2 2 2 2
left_child=1 2 4 5 -1 -2 9 -8 -3 10 -7 12 -12
right_child=3 8 -4 -5 -6 6 7 -9 -10 -11 11 -13 -14
leaf_value=0.01939647413295692 -0.075555806654688265 -0.012528881523644939 0.007213983398519099 0.03268259023547665 0.06380872529242429 -0.11596945174039482 -0.065877130182230001 -0.11918022964821283 -0.0067603356352685662 -0.11665075797242859 -0.11084652907578618 -0.11103337694240034 -0.10914618931942868
leaf_weight=21.334114849567413 14.549831792712217 33.089809328317642 46.947674997150898 1.9373940005898465 34.338938854634762 1.6978413797914962 1.9820687621831883 2.3050014451146126 32.509880006313324 1.9113174229860304 2.5205537155270576 1.9821457080543039 1.5563241355121133
leaf_count=104 131 136 272 15 161 19 20 25 135 22 32 25 22
internal_value=0 0.0137276 0.0286844 -0.0831236 0.0467898 -0.0909946 -0.107091 -0.0945363 -0.00967011 -0.112658 -0.111674 -0.110471 -0.110197
internal_weight=0 168.22 102.621 30.4425 55.6731 28.5051 13.9553 4.28707 65.5997 9.66818 7.75686 6.05902 4.07688
internal_count=1119 808 537 311 265 296 165 45 271 120 98 79 54
is_linear=0
shrinkage=0.1


Tree=30
num_leaves=7
num_cat=0
split_feature=0 16 0 0 16 0
split_gain=23.1056 2.99698 3.58256 4.00714 1.86368 1.08869
threshold=9.0000000000000018 1.0000000180025095e-35 29.000000000000004 19.000000000000004 1.0000000180025095e-35 49.000000000000007
decision_type=2 2 2 2 2 2
left_child=4 2 3 -2 -1 -4
right_child=1 -3 5 -5 -6 -7
leaf_value=0.029676709342986732 -0.04609431842070065 0.027945748390684661 -0.1177137219023352 0.010347758935423453 0.091755527711437454 -0.044111718177937798
leaf_weight=102.23589151352644 56.947880554944277 6.7540040686726561 7.2593614123761636 16.144450303167105 5.0760990232229224 2.7790067829191685
leaf_count=501 378 37 52 100 22 28
internal_value=0 -0.0361161 -0.0413208 -0.0336275 0.0326132 -0.0973379
internal_weight=0 89.8847 83.1307 73.0923 107.312 10.0384
internal_count=1118 595 558 478 523 80
is_linear=0
shrinkage=0.1


Tree=31
num_leaves=4
num_cat=0
split_feature=24 16 14
split_gain=5.5213 3.75389 0.0120729
threshold=1.0000000180025095e-35 1.0000000180025095e-35 1.0000000180025095e-35
decision_type=2 2 2
left_child=1 2 -1
right_child=-2 -3 -4
leaf_value=-0.0085476749276641503 0.051207281165546695 0.050020130642169681 -0.0029882163932753521
leaf_weight=160.12570351362228 19.795274920761585 11.783903539180754 4.0038141310214987
leaf_count=949 90 59 20
internal_value=0 -0.00449786 -0.00841206
internal_weight=0 175.913 164.13
internal_count=1118 1028 969
is_linear=0
shrinkage=0.1


Tree=32
num_leaves=9
num_cat=0
split_feature=0 17 17 0 0 0 0 0
split_gain=18.8922 5.75273 5.38235 0.496638 1.68628 0.0533962 0.205279 0.00439718
threshold=9.0000000000000018 1.0000000180025095e-35 1.0000000180025095e-35 29.000000000000004 19.000000000000004 29.000000000000004 19.000000000000004 39.000000000000007
decision_type=2 2 2 2 2 2 2 2
left_child=1 -1 3 4 -2 6 -4 -5
right_child=2 -3 5 7 -6 -7 -8 -9
leaf_value=0.036621622651804311 -0.029446393956419521 -0.043264072997782177 -0.10153215082144336 -0.042517639874922464 0.0079882104382197651 -0.11211151345540377 -0.065186393141194454 -0.046828761034437838
leaf_weight=97.287014625966549 50.489589333534241 9.9349231496453267 7.5395876877009851 6.7659021578729135 15.798525311052797 1.9753284417092789 1.9573746211826799 3.6380173936486244
leaf_count=446 306 77 86 42 88 25 20 28
internal_value=0 0.0292196 -0.0332689 -0.0237126 -0.0205246 -0.0971525 -0.0940411 -0.0440251
internal_weight=0 107.222 88.1643 76.692 66.2881 11.4723 9.49696 10.4039
internal_count=1118 523 595 464 394 131 106 70
is_linear=0
shrinkage=0.1


Tree=33
num_leaves=4
num_cat=0
split_feature=11 18 22
split_gain=6.39088 1.04745 0.379759
threshold=1.0000000180025095e-35 1.0000000180025095e-35 1.0000000180025095e-35
decision_type=2 2 2
left_child=1 2 -1
right_child=-2 -3 -4
leaf_value=0.011080647634211214 -0.090815878519530824 -0.005769574682233939 -0.018410251958353021
leaf_weight=116.85796474665403 7.3107522875070563 64.768206134438515 4.5359807312488547
leaf_count=743 78 271 26
internal_value=0 0.00449967 0.0099787
internal_weight=0 186.162 121.394
internal_count=1118 1040 769
is_linear=0
shrinkage=0.1


Tree=34
num_leaves=4
num_cat=0
split_feature=3 24 14
split_gain=14.0734 2.43312 0.0687392
threshold=1.0000000180025095e-35 1.0000000180025095e-35 1.0000000180025095e-35
decision_type=2 2 2
left_child=1 2 -1
right_child=-2 -3 -4
leaf_value=0.0063832743843959877 -0.075674443629982643 0.043381402286497651 -0.0068782364180048454
leaf_weight=148.30677933245897 21.403313361108303 19.699622541666031 4.0143739283084861
leaf_count=846 162 90 20
internal_value=0 0.0103108 0.00603377
internal_weight=0 172.021 152.321
internal_count=1118 956 866
is_linear=0
shrinkage=0.1


Tree=35
num_leaves=19
num_cat=0
split_feature=1 0 1 0 1 0 1 1 1 0 0 0 1 0 0 1 1 1
split_gain=18.9764 8.61031 1.90562 1.81666 1.45082 6.12113 1.25738 0.797452 1.34264 0.796162 0.660026 0.301099 0.438438 0.0578426 0.0132376 0.00357569 0.00182635 0.000191022
threshold=10.000000000000002 9.0000000000000018 2.5000000000000004 9.0000000000000018 5.5000000000000009 19.000000000000004 18.250000000000004 2.5000000000000004 5.5000000000000009 19.000000000000004 29.000000000000004 19.000000000000004 15.550000000000002 19.000000000000004 29.000000000000004 16.950000000000006 28.600000000000005 19.250000000000004
decision_type=2 2 2 2 2 2 2 2 2 2 2 2 2 2 2 2 2 2
left_child=1 7 13 6 5 -4 -2 -1 -9 -6 -11 12 -5 -3 15 -13 17 -14
right_child=3 2 4 11 9 -7 -8 8 -10 10 -12 14 16 -15 -16 -17 -18 -19
leaf_value=0.019891476476031428 -0.027456277364129957 -0.039597893686992139 -0.020418082320191197 -0.063479025025503802 -0.0071678062770482876 0.085134998447045501 -0.095808502604343329 0.051170148114911135 0.021165165536172377 -0.068462067060898121 -0.016339397349005469 -0.1209691409503201 -0.108450024366368 -0.052057246014748204 -0.1094793446990414 -0.11515211506333888 -0.11165663504304724 -0.106629607913424
leaf_weight=35.754611879587173 8.6945274621248263 11.855011329054834 18.364310048520569 4.0140184089541417 13.104635305702688 7.8392671197652808 3.897824987769126 35.823115229606628 25.549658253788948 5.3619026169180852 4.4421723559498787 2.7897334545850745 1.1318803876638415 5.4340975061058989 2.332233652472496 1.7010519690811632 1.9918919950723646 1.1746016331017015
leaf_count=149 65 57 90 52 93 35 38 155 130 30 30 25 18 30 34 21 28 24
internal_value=0 0.0127902 -0.0149618 -0.0766762 -0.00491056 0.01116 -0.048614 0.0317629 0.038679 -0.0232925 -0.0448456 -0.100023 -0.0872449 -0.043514 -0.115591 -0.118766 -0.109439 -0.107523
internal_weight=0 163.529 66.4014 27.7278 49.1123 26.2036 12.5924 97.1274 61.3728 22.9087 9.80407 15.1354 8.31239 17.2891 6.82302 4.49079 4.29837 2.30648
internal_count=1104 799 365 305 278 125 103 434 285 153 60 202 122 87 80 46 70 42
is_linear=0
shrinkage=0.1


Tree=36
num_leaves=10
num_cat=0
split_feature=0 24 3 3 24 0 0 0 0
split_gain=10.9629 8.2025 5.01713 2.13706 2.53407 0.854968 1.68274 0.644887 0.491066
threshold=9.0000000000000018 1.0000000180025095e-35 1.0000000180025095e-35 1.0000000180025095e-35 1.0000000180025095e-35 39.000000000000007 19.000000000000004 29.000000000000004 19.000000000000004
decision_type=2 2 2 2 2 2 2 2 2
left_child=1 2 -1 4 5 6 -2 -8 -5
right_child=3 -3 -4 8 -6 -7 7 -9 -10
leaf_value=0.017954363251450538 -0.024150014692251514 0.099877480269311661 -0.062408149537014394 -0.059578612009390658 -0.079343472291314068 -0.057968149524749213 0.02428092940098972 -0.016717002906092165 -0.11299225212956641
leaf_weight=88.959980703890324 39.538327652961016 11.60350815951824 8.5120436474680883 8.0873546302318555 6.955939568579196 4.4492459502071133 13.16765968874097 5.4143018610775462 2.1865809932351103
leaf_count=429 278 52 56 69 36 42 78 37 27
internal_value=0 0.020398 0.0109365 -0.0283757 -0.0220849 -0.0157194 -0.0124851 0.0123352 -0.0709465
internal_weight=0 109.076 97.472 79.7994 69.5255 62.5695 58.1203 18.582 10.2739
internal_count=1104 537 485 567 471 435 393 115 96
is_linear=0
shrinkage=0.1


Tree=37
num_leaves=4
num_cat=0
split_feature=3 18 24
split_gain=7.89255 2.34398 0.451566
threshold=1.0000000180025095e-35 1.0000000180025095e-35 1.0000000180025095e-35
decision_type=2 2 2
left_child=1 2 -1
right_child=-2 -3 -4
leaf_value=0.012808967165689392 -0.063154723535325294 -0.0083283377456569978 0.030191317616568403
leaf_weight=85.567096058279276 18.003250870853662 65.426597625017166 18.108084425330162
leaf_count=588 152 276 88
internal_value=0 0.00649217 0.015845
internal_weight=0 169.102 103.675
internal_count=1104 952 676
is_linear=0
shrinkage=0.1


Tree=38
num_leaves=6
num_cat=0
split_feature=0 11 0 0 0
split_gain=9.07054 4.34145 0.620167 0.298362 0.0498362
threshold=9.0000000000000018 1.0000000180025095e-35 29.000000000000004 19.000000000000004 39.000000000000007
decision_type=2 2 2 2 2
left_child=1 -1 3 -2 -4
right_child=2 -3 4 -5 -6
leaf_value=0.022690919201293153 -0.026378871806959154 -0.078141520195085301 -0.04243122698049534 -0.011154656293837819 -0.056021704210359159
leaf_weight=103.90839786082506 49.704712528735399 4.4530561566352835 6.9812210462987405 17.371921390295029 4.3980243895202875
leaf_count=502 362 35 50 112 43
internal_value=0 0.0185473 -0.026098 -0.022436 -0.0476839
internal_weight=0 108.361 78.4559 67.0766 11.3792
internal_count=1104 537 567 474 93
is_linear=0
shrinkage=0.1


Tree=39
num_leaves=4
num_cat=0
split_feature=11 16 24
split_gain=4.75468 1.59024 1.41559
threshold=1.0000000180025095e-35 1.0000000180025095e-35 1.0000000180025095e-35
decision_type=2 2 2
left_child=1 2 -1
right_child=-2 -3 -4
leaf_value=-0.0028476291979830952 -0.085240090584207812 0.038615708850289726 0.026853265782852843
leaf_weight=149.61649769544601 6.3491477482020846 11.605067208409308 17.975041784346104
leaf_count=877 76 63 88
internal_value=0 0.00281687 0.000337942
internal_weight=0 179.197 167.592
internal_count=1104 1028 965
is_linear=0
shrinkage=0.1


Tree=40
num_leaves=3
num_cat=0
split_feature=17 22
split_gain=11.3243 0.318611
threshold=1.0000000180025095e-35 1.0000000180025095e-35
decision_type=2 2
left_child=1 -1
right_child=-2 -3
leaf_value=0.0079120977708178972 -0.073129908217513487 -0.020985634610647421
leaf_weight=165.92657729424536 19.545647954568267 3.9051295891404143
leaf_count=900 199 24
internal_value=0 0.00724762
internal_weight=0 169.832
internal_count=1123 924
is_linear=0
shrinkage=0.1


Tree=41
num_leaves=3
num_cat=0
split_feature=11 16
split_gain=2.80035 1.95662
threshold=1.0000000180025095e-35 1.0000000180025095e-35
decision_type=2 2
left_child=1 -1
right_child=-2 -3
leaf_value=-0.0013610701741349936 -0.067195269835254826 0.041967105787062087
leaf_weight=171.27843131497502 6.1753925438970318 11.097639307379721
leaf_count=986 77 60
internal_value=0 0.00127546
internal_weight=0 182.376
internal_count=1123 1046
is_linear=0
shrinkage=0.1


Tree=42
num_leaves=5
num_cat=0
split_feature=14 16 25 25
split_gain=2.13162 1.6357 0.0418037 0.0161526
threshold=1.0000000180025095e-35 1.0000000180025095e-35 1.0000000180025095e-35 1.0000000180025095e-35
decision_type=2 2 2 2
left_child=1 3 -3 -1
right_child=-2 2 -4 -5
leaf_value=-0.0037890211440470764 -0.079751269903273067 0.029351953640000508 0.042256028355393188 -0.0013465723961883955
leaf_weight=33.558341296389699 3.36517609655857 3.8395317196846008 7.2527935653924924 140.18235974386334
leaf_count=285 16 26 34 762
internal_value=0 0.000558629 0.0377894 -0.00181834
internal_weight=0 184.833 11.0923 173.741
internal_count=1123 1107 60 1047
is_linear=0
shrinkage=0.1


Tree=43
num_leaves=12
num_cat=0
split_feature=1 24 24 1 1 1 1 1 1 1 1
split_gain=13.453 2.49971 1.87147 1.45061 1.10117 0.2104 0.176711 0.256859 0.092111 0.00184937 0.000957557
threshold=10.000000000000002 1.0000000180025095e-35 1.0000000180025095e-35 5.5000000000000009 2.5000000000000004 29.650000000000002 25.900000000000002 18.250000000000004 15.900000000000002 5.5000000000000009 22.150000000000002
decision_type=2 2 2 2 2 2 2 2 2 2 2
left_child=2 5 3 4 -1 6 7 8 -2 -4 -9
right_child=1 -3 9 -5 -6 -7 -8 10 -10 -11 -12
leaf_value=0.0011550512294372245 -0.080785212103169482 -0.003058723525976774 0.043736063330092848 -0.010814008905538644 0.02125026953183088 -0.11137755051991192 -0.048309836317676463 -0.10717525126331658 -0.056230838415411911 0.041440255076218763 -0.11060528384159195
leaf_weight=50.849044136703014 11.034724613651646 4.6226898059248915 5.2164387702941868 37.671134941279888 58.804019026458263 2.5584078542888156 1.5383455306291569 1.8034334704279893 1.7732627484947432 10.718096554279327 1.4833232276141641
leaf_count=233 132 25 26 244 272 38 23 33 27 48 22
internal_value=0 -0.0693921 0.00963664 0.00611548 0.0119316 -0.0845786 -0.0806903 -0.0837852 -0.0773857 0.0421918 -0.108723
internal_weight=0 24.8142 163.259 147.324 109.653 20.1915 17.6331 16.0947 12.808 15.9345 3.28676
internal_count=1123 300 823 749 505 275 237 214 159 74 55
is_linear=0
shrinkage=0.1


Tree=44
num_leaves=3
num_cat=0
split_feature=3 17
split_gain=10.0583 11.5633
threshold=1.0000000180025095e-35 1.0000000180025095e-35
decision_type=2 2
left_child=1 -1
right_child=-2 -3
leaf_value=0.015862903289493503 -0.072449423448593647 -0.068552218000383733
leaf_weight=150.66888368502259 17.707523981109262 18.185654001310468
leaf_count=767 157 199
internal_value=0 0.00677138
internal_weight=0 168.855
internal_count=1123 966
is_linear=0
shrinkage=0.1


Tree=45
num_leaves=14
num_cat=0
split_feature=1 18 1 24 1 1 24 1 1 1 1 1 1
split_gain=11.0099 6.55581 5.67767 3.45562 2.09177 1.3023 0.332196 0.15595 0.336271 0.172944 0.0307443 0.000291345 0.000197944
threshold=13.200000000000001 1.0000000180025095e-35 5.5000000000000009 1.0000000180025095e-35 10.000000000000002 2.5000000000000004 1.0000000180025095e-35 29.650000000000002 26.950000000000003 18.250000000000004 2.5000000000000004 34.350000000000001 22.150000000000002
decision_type=2 2 2 2 2 2 2 2 2 2 2 2 2
left_child=1 2 5 4 -4 -1 7 8 9 -2 -3 -9 -11
right_child=6 10 3 -5 -6 -7 -8 11 -10 12 -12 -13 -14
leaf_value=0.028840616819097477 -0.071439441749245797 -0.012823551810419498 -7.8932311526730433e-05 0.048843991318462468 -0.05590528033678871 0.061778374220179337 -0.14326361615157557 -0.11167348556641783 -0.033925361754645229 -0.10633868163041778 -0.017117749852754154 -0.10950769713003877 -0.10792280878998191
leaf_weight=19.503218241035938 2.3877799306064809 32.999679729342461 32.353092562407255 12.279011800885199 8.4685607552528364 31.218378290534019 1.2919948697090156 1.197960125282407 1.228017810732126 1.6573797687888148 33.697636768221855 1.2899181731045244 1.5051166564226148
leaf_count=102 38 139 220 56 111 158 8 18 17 34 145 23 28
internal_value=0 0.00947029 0.025186 0.00233076 -0.0116603 0.0491133 -0.0957604 -0.089137 -0.0812775 -0.0917543 -0.0149931 -0.110551 -0.107093
internal_weight=0 170.52 103.822 53.1007 40.8217 50.7216 10.5582 9.26617 6.77829 5.55028 66.6973 2.48788 3.1625
internal_count=1097 931 647 387 331 260 166 158 117 100 284 41 62
is_linear=0
shrinkage=0.1


Tree=46
num_leaves=22
num_cat=0
split_feature=1 0 3 3 1 0 1 0 1 1 0 0 1 0 1 1 1 1 1 0 1
split_gain=9.58141 6.0129 3.022 1.82683 1.37695 0.876346 0.816392 0.681754 0.654348 0.50005 4.64118 3.57489 0.443701 0.310566 0.0543713 0.0635558 0.0357371 0.0266842 0.003702 0.000392524 0.000188866
threshold=13.200000000000001 9.0000000000000018 1.0000000180025095e-35 1.0000000180025095e-35 10.000000000000002 29.000000000000004 5.5000000000000009 19.000000000000004 2.5000000000000004 5.5000000000000009 19.000000000000004 19.000000000000004 5.5000000000000009 9.0000000000000018 10.000000000000002 5.5000000000000009 2.5000000000000004 24.650000000000002 28.600000000000005 29.000000000000004 18.850000000000005
decision_type=2 2 2 2 2 2 2 2 2 2 2 2 2 2 2 2 2 2 2 2 2
left_child=1 2 8 4 5 9 -7 -6 -1 10 16 -11 -5 17 15 -10 -3 -2 19 20 -15
right_child=13 3 -4 12 7 6 -8 -9 14 11 -12 -13 -14 18 -16 -17 -18 -19 -20 -21 -22
leaf_value=0.018290101522478709 -0.064070084521028803 -0.0079176587454638497 -0.040620535968421898 -0.036834220792913222 -0.031665061882420596 -0.064341150569144093 -0.0012201852183290436 -0.11646883476754673 0.037579750722936928 0.019086000323665028 0.072519897386018078 -0.087316386349568356 -0.083577555432050366 -0.10642523726918117 0.045589248230475825 0.030435879177327353 -0.015027217666757138 -0.080095422741228606 -0.11142851340843381 -0.10785952640356476 -0.10462699043014614
leaf_weight=33.878207504749298 2.0120055936276895 12.360838837921621 6.6233486384153357 4.5268445387482625 2.4436198957264419 4.2996810227632505 3.9145587757229805 1.5488279741257427 32.393730714917183 9.9058081656694394 8.3868630379438383 4.6351466104388228 3.6828319020569324 1.1434927694499499 5.1606765538454047 20.230976685881615 16.518733166158199 2.1487186662852764 2.3008983489125967 1.017918065190315 1.1938143763691185
leaf_count=143 27 59 46 29 38 26 28 19 146 70 37 23 48 25 36 103 80 22 39 19 34
internal_value=0 0.0085137 0.0246112 -0.0133929 -0.00769733 -0.00391475 -0.0342604 -0.0645638 0.0293247 0.000896647 0.00703354 -0.0148314 -0.0578031 -0.093084 0.035794 0.0348334 -0.0119842 -0.072346 -0.108339 -0.106221 -0.105507
internal_weight=0 170.511 98.2869 72.2238 64.0141 60.0216 8.21424 3.99245 91.6636 51.8074 37.2664 14.541 8.20968 9.81685 57.7854 52.6247 28.8796 4.16072 5.65612 3.35523 2.33731
internal_count=1097 931 474 457 380 323 54 57 428 269 176 93 77 166 285 249 139 49 117 78 59
is_linear=0
shrinkage=0.1


Tree=47
num_leaves=4
num_cat=0
split_feature=16 24 22
split_gain=2.89558 1.83779 0.0547304
threshold=1.0000000180025095e-35 1.0000000180025095e-35 1.0000000180025095e-35
decision_type=2 2 2
left_child=1 2 -1
right_child=-2 -3 -4
leaf_value=-0.0036517389275149952 0.055543195968788511 0.030030331515153587 -0.015199080396178594
leaf_weight=146.72632994689047 9.7909923754632455 17.763312328606844 4.2226662524044505
leaf_count=928 55 88 26
internal_value=0 -0.000394451 -0.00397477
internal_weight=0 168.712 150.949
internal_count=1097 1042 954
is_linear=0
shrinkage=0.1


Tree=48
num_leaves=11
num_cat=0
split_feature=17 3 0 0 0 0 0 0 0 0
split_gain=10.4008 5.95219 3.36963 1.47605 1.03205 0.202478 0.239441 0.110995 0.0103767 0.00279546
threshold=1.0000000180025095e-35 1.0000000180025095e-35 9.0000000000000018 9.0000000000000018 29.000000000000004 19.000000000000004 29.000000000000004 9.0000000000000018 39.000000000000007 19.000000000000004
decision_type=2 2 2 2 2 2 2 2 2 2
left_child=1 2 -1 -2 9 -5 -7 -3 -6 -4
right_child=3 7 4 5 8 6 -8 -9 -10 -11
leaf_value=0.029115168690018286 -0.042045864799571182 -0.0399304874490371 0.0039531595893196967 -0.11199961631743055 -0.037043536759990149 -0.053854533606821735 -0.10963123793414785 -0.057184258483400391 -0.029704032876522152 0.0022693595883534713
leaf_weight=86.339308336377144 8.5737466700375098 6.7322791330516329 37.982730837538838 5.5603818614035827 5.3354268521070463 1.6374989040195944 1.452210661023855 8.356550505384801 3.0147558115422726 13.316807836294172
leaf_count=398 74 51 222 83 34 21 25 96 28 65
internal_value=0 0.0103073 0.0164873 -0.0714501 -0.00179081 -0.100595 -0.0800704 -0.049486 -0.0343937 0.00351606
internal_weight=0 161.078 145.989 17.2238 59.6497 8.65009 3.08971 15.0888 8.35018 51.2995
internal_count=1097 894 747 203 349 129 46 147 62 287
is_linear=0
shrinkage=0.1


Tree=49
num_leaves=15
num_cat=0
split_feature=1 11 1 1 1 25 25 1 25 25 1 25 1 1
split_gain=8.27442 1.31683 0.601134 0.715459 0.840422 1.03543 0.548578 0.417301 0.41386 0.240573 0.22748 0.108836 0.0359342 0.00551426
threshold=13.200000000000001 1.0000000180025095e-35 10.000000000000002 2.5000000000000004 5.5000000000000009 1.0000000180025095e-35 1.0000000180025095e-35 18.850000000000005 1.0000000180025095e-35 1.0000000180025095e-35 29.300000000000001 1.0000000180025095e-35 27.450000000000003 16.950000000000006
decision_type=2 2 2 2 2 2 2 2 2 2 2 2 2 2
left_child=1 2 3 9 8 -6 7 -2 -5 -1 -9 -4 13 -8
right_child=6 -3 11 4 5 -7 12 10 -10 -11 -12 -13 -14 -15
leaf_value=0.017540328293551618 -0.0087974802612080395 -0.048277061236359942 -0.00039899552465144476 0.040377259985237723 -0.029641406189886102 0.011509897773040838 -0.11465785338872109 -0.10786102424241462 0.018767109875944332 -0.0021384766499980379 -0.057618201187170953 -0.022320775249177666 -0.12685878209285772 -0.10513411839401861
leaf_weight=7.2191920280456534 0.97694097273051728 4.1731867268681517 3.4106101468205452 10.841282069683073 7.4295404441654673 34.542354572564363 0.95347629114985322 1.783843692392111 48.544411718845367 44.538374334573746 1.8211337979882953 6.7410120386630279 1.8208579663187263 1.6776823680847881
leaf_count=35 18 41 45 56 57 199 15 39 225 203 30 70 23 41
internal_value=0 0.00719198 0.0086098 0.0101722 0.015057 0.00422561 -0.0910599 -0.0667695 0.0227122 0.000606341 -0.0824798 -0.0149558 -0.116059 -0.108585
internal_weight=0 167.44 163.267 153.115 101.358 41.9719 9.03394 4.58192 59.3857 51.7576 3.60498 10.1516 4.45202 2.63116
internal_count=1097 931 890 775 537 256 166 87 281 238 69 115 79 56
is_linear=0
shrinkage=0.1


Tree=50
num_leaves=6
num_cat=0
split_feature=0 14 0 0 0
split_gain=6.76824 1.3567 0.389371 0.0171034 0.00685324
threshold=9.0000000000000018 1.0000000180025095e-35 19.000000000000004 29.000000000000004 49.000000000000007
decision_type=2 2 2 2 2
left_child=1 -1 -2 -4 -5
right_child=2 -3 3 4 -6
leaf_value=0.016373475239566771 -0.02068187415969058 -0.044578674311755911 -0.033923110860235355 -0.037761372836394094 -0.043943877526186392
leaf_weight=95.548976235091686 48.654356453567743 3.7969079911708823 15.564846985042097 7.3537336811423284 2.3710390403866768
leaf_count=508 380 16 108 59 29
internal_value=0 0.0140439 -0.0259136 -0.0359787 -0.0392688
internal_weight=0 99.3459 73.944 25.2896 9.72477
internal_count=1100 524 576 196 88
is_linear=0
shrinkage=0.1


Tree=51
num_leaves=16
num_cat=0
split_feature=1 16 1 3 1 3 1 1 1 1 1 1 1 1 1
split_gain=9.08352 4.36696 2.46822 1.47282 1.16978 0.925868 0.643868 0.174722 0.140704 0.647038 0.0718189 0.0141687 0.00868124 0.00465376 0.000431685
threshold=10.000000000000002 1.0000000180025095e-35 5.5000000000000009 1.0000000180025095e-35 18.250000000000004 1.0000000180025095e-35 2.5000000000000004 5.5000000000000009 29.650000000000002 27.850000000000005 13.200000000000001 37.95000000000001 5.5000000000000009 24.650000000000002 22.150000000000002
decision_type=2 2 2 2 2 2 2 2 2 2 2 2 2 2 2
left_child=1 3 -3 6 5 10 -1 -8 9 13 -2 -10 -5 14 -6
right_child=4 2 -4 12 8 -7 7 -9 11 -11 -12 -13 -14 -15 -16
leaf_value=-0.0047891993872789416 -0.033144138936118658 0.12729514041115814 0.019388002235125431 -0.034547109135985313 -0.10538910076523676 -0.10716961980854832 0.013532438508383999 0.0042513521178628158 -0.10825156332665596 -0.017116245746008087 -0.055127443580529782 -0.12263994970407191 -0.0291545371049199 -0.1150429588847227 -0.10817494730251496
leaf_weight=46.448258467018604 9.710144806653263 4.4094213619828206 4.0821690261363983 6.2541089653968793 1.463489359244704 2.2121371105313292 51.233102351427078 33.577655848115683 1.2923076320439579 1.0132563710212705 1.7546626236289729 1.4548858553171156 5.7117244005203247 0.85923805460333813 0.89724311418831337
leaf_count=211 104 23 19 39 38 42 241 201 26 12 33 20 53 21 17
internal_value=0 0.00574406 0.0754209 0.00161302 -0.064938 -0.0479375 0.0046748 0.00985794 -0.0982475 -0.0868103 -0.0365086 -0.115872 -0.031973 -0.108741 -0.106448
internal_weight=0 151.716 8.49159 143.225 20.6574 13.6769 131.259 84.8108 6.98042 4.23323 11.4648 2.74719 11.9658 3.21997 2.36073
internal_count=1100 787 42 745 313 179 653 442 134 88 137 46 92 76 55
is_linear=0
shrinkage=0.1


Tree=52
num_leaves=11
num_cat=0
split_feature=17 0 3 3 0 0 0 0 0 0
split_gain=6.89503 4.13098 1.44946 1.29775 1.28535 0.323561 0.0555729 0.0386268 0.0157303 0.00102431
threshold=1.0000000180025095e-35 9.0000000000000018 1.0000000180025095e-35 1.0000000180025095e-35 9.0000000000000018 19.000000000000004 19.000000000000004 29.000000000000004 39.000000000000007 29.000000000000004
decision_type=2 2 2 2 2 2 2 2 2 2
left_child=1 3 5 -1 -2 -3 -6 -7 -9 -8
right_child=4 2 -4 -5 6 7 9 8 -10 -11
leaf_value=0.020913163820309499 -0.03920498870946594 -0.003960375741732876 -0.054741227333902735 -0.026946062493804646 -0.091122125046194088 -0.016199275168481905 -0.11225242969450958 -0.028116945343510516 -0.01868197737963366 -0.10797086045967995
leaf_weight=84.192030631005764 8.2431710027158243 36.088752966374159 8.1673358343541604 6.0745570845901957 4.9822565726935855 12.919062603265049 1.1117318943142893 5.4034102112054807 2.6257833484560251 1.1233714679256079
leaf_count=399 73 222 101 52 85 68 17 34 25 24
internal_value=0 0.0038384 -0.0153406 0.0176924 -0.0661849 -0.00969873 -0.0969994 -0.0195845 -0.0250314 -0.1101
internal_weight=0 155.471 65.2043 90.2666 15.4605 57.037 7.21736 20.9483 8.02919 2.2351
internal_count=1100 901 450 451 199 349 126 127 59 41
is_linear=0
shrinkage=0.1


Tree=53
num_leaves=4
num_cat=0
split_feature=18 11 25
split_gain=3.22828 2.88366 0.276977
threshold=1.0000000180025095e-35 1.0000000180025095e-35 1.0000000180025095e-35
decision_type=2 2 2
left_child=1 2 -1
right_child=-2 -3 -4
leaf_value=0.0041308346940259122 -0.020234044222720314 -0.062472687700566243 0.015585279713181247
leaf_weight=30.085268401540816 62.971898123621941 5.4559672512114039 70.765439128503203
leaf_count=249 273 78 500
internal_value=0 0.00833746 0.0121682
internal_weight=0 106.307 100.851
internal_count=1100 827 749
is_linear=0
shrinkage=0.1


Tree=54
num_leaves=9
num_cat=0
split_feature=0 18 3 18 3 0 0 0
split_gain=4.80648 3.65885 2.1157 1.03828 1.29534 1.59621 0.0631079 0.0129016
threshold=9.0000000000000018 1.0000000180025095e-35 1.0000000180025095e-35 1.0000000180025095e-35 1.0000000180025095e-35 19.000000000000004 29.000000000000004 49.000000000000007
decision_type=2 2 2 2 2 2 2 2
left_child=1 2 -1 4 5 -2 -7 -8
right_child=3 -3 -4 -5 -6 6 7 -9
leaf_value=0.037410289976088522 0.010355334660481956 -0.0085369191984629549 -0.02561605607861896 -0.042717203230453922 -0.052192911899861576 -0.022780438213903402 -0.031346736124893922 -0.04010567891403613
leaf_weight=46.708328023552895 22.803037441335618 45.263171404600143 6.0115953236818305 17.797488585114479 7.9165679244324556 13.922039460390808 6.7892103902995569 2.2353503135964274
leaf_count=280 226 192 52 81 101 85 54 29
internal_value=0 0.0123182 0.0302235 -0.0217864 -0.014845 -0.00838229 -0.0270027 -0.0335163
internal_weight=0 97.9831 52.7199 71.4637 53.6662 45.7496 22.9466 9.02456
internal_count=1100 524 332 576 495 394 168 83
is_linear=0
shrinkage=0.1


Tree=55
num_leaves=4
num_cat=0
split_feature=3 18 16
split_gain=4.00831 4.06067 0.0253691
threshold=1.0000000180025095e-35 1.0000000180025095e-35 1.0000000180025095e-35
decision_type=2 2 2
left_child=1 2 -1
right_child=-2 -3 -4
leaf_value=0.019886971666188344 -0.048760230978854367 -0.012371273392144864 0.025382456554261041
leaf_weight=84.448987137526274 13.918210661038755 63.137361645698547 9.3281633183360082
leaf_count=621 150 274 57
internal_value=0 0.00723398 0.0204336
internal_weight=0 156.915 93.7772
internal_count=1102 952 678
is_linear=0
shrinkage=0.1


Tree=56
num_leaves=4
num_cat=0
split_feature=17 18 14
split_gain=6.39558 4.09295 1.5155
threshold=1.0000000180025095e-35 1.0000000180025095e-35 1.0000000180025095e-35
decision_type=2 2 2
left_child=1 2 -1
right_child=-2 -3 -4
leaf_value=0.024722632764114891 -0.059101103787648962 -0.01112584841950872 -0.036485940387080647
leaf_weight=88.032945209182799 15.387955414131282 63.181947112083435 4.2399497665464869
leaf_count=607 200 274 21
internal_value=0 0.0084832 0.0219101
internal_weight=0 155.455 92.2729
internal_count=1102 902 628
is_linear=0
shrinkage=0.1


Tree=57
num_leaves=4
num_cat=0
split_feature=11 24 25
split_gain=2.12538 0.276613 0.0365193
threshold=1.0000000180025095e-35 1.0000000180025095e-35 1.0000000180025095e-35
decision_type=2 2 2
left_child=1 2 -1
right_child=-2 -3 -4
leaf_value=0.0057941869010339764 -0.060219858622202152 0.015841212070658636 0.0019072677330311053
leaf_weight=30.471133024431765 5.2953211208805433 18.003781504929066 116.9277629815042
leaf_count=247 77 95 683
internal_value=0 0.00414002 0.00271079
internal_weight=0 165.403 147.399
internal_count=1102 1025 930
is_linear=0
shrinkage=0.1


Tree=58
num_leaves=4
num_cat=0
split_feature=17 18 14
split_gain=5.3968 3.29975 1.242
threshold=1.0000000180025095e-35 1.0000000180025095e-35 1.0000000180025095e-35
decision_type=2 2 2
left_child=1 2 -1
right_child=-2 -3 -4
leaf_value=0.021975084270188985 -0.055827036986996953 -0.010203351614260361 -0.033479279382878473
leaf_weight=88.294043686240911 14.777470227330921 63.212324142456055 4.2323693484067908
leaf_count=607 200 274 21
internal_value=0 0.00740724 0.0194385
internal_weight=0 155.739 92.5264
internal_count=1102 902 628
is_linear=0
shrinkage=0.1


Tree=59
num_leaves=14
num_cat=0
split_feature=1 18 1 1 1 1 1 1 1 1 1 1 1
split_gain=6.80881 3.49719 3.81998 1.64255 1.46302 0.156468 0.430731 0.144723 0.614813 0.112365 0.0140196 0.00035937 0.000199694
threshold=10.000000000000002 1.0000000180025095e-35 5.5000000000000009 2.5000000000000004 18.250000000000004 29.300000000000001 35.95000000000001 13.200000000000001 16.300000000000001 2.5000000000000004 27.450000000000003 23.350000000000005 20.950000000000003
decision_type=2 2 2 2 2 2 2 2 2 2 2 2 2
left_child=1 2 3 -1 7 10 -7 -2 -9 -3 11 12 -6
right_child=4 9 -4 -5 5 6 -8 8 -10 -11 -12 -13 -14
leaf_value=0.017101881698358436 -0.031494346964151411 -0.0050555104865202729 -0.00075101254340295665 0.055496752812373609 -0.10562041303571919 -0.037698907710997105 -0.11989220609614458 -0.11634496317313069 -0.0039387703632078981 -0.013487736501627613 -0.11997781121344152 -0.10396435735446319 -0.10779626278322824
leaf_weight=17.928726021200418 10.903410821221771 32.322964712977409 40.917306501418352 29.43601568043232 0.93835870735347249 1.32895621098578 1.2255415618419645 0.98992908000945934 0.95698420330882072 30.921009585261345 0.97488657105714072 0.74398789089173067 0.76622334495186806
leaf_count=98 132 138 269 161 25 23 22 16 24 136 13 26 19
internal_value=0 0.00877094 0.0216294 0.0409633 -0.0549912 -0.0958609 -0.0771318 -0.0359787 -0.0610929 -0.00917816 -0.109836 -0.105798 -0.106598
internal_weight=0 151.526 88.282 47.3647 18.8283 5.97795 2.5545 12.8503 1.94691 63.244 3.42346 2.44857 1.70458
internal_count=1102 802 528 259 300 128 45 172 40 274 83 70 44
is_linear=0
shrinkage=0.1


Tree=60
num_leaves=5
num_cat=0
split_feature=3 25 25 14
split_gain=3.11347 1.43358 0.262929 0.185485
threshold=1.0000000180025095e-35 1.0000000180025095e-35 1.0000000180025095e-35 1.0000000180025095e-35
decision_type=2 2 2 2
left_child=2 -2 3 -1
right_child=1 -3 -4 -5
leaf_value=0.013444051054092777 -0.094319937286776678 -0.024991290429477626 0.00042029456137948428 -0.011791550919724106
leaf_weight=27.342318835668269 4.4035705411806694 9.2432281933724862 125.7708414522931 3.2598532401025286
leaf_count=244 55 95 687 18
internal_value=0 -0.0473624 0.00244296 0.0107559
internal_weight=0 13.6468 156.373 30.6022
internal_count=1099 150 949 262
is_linear=0
shrinkage=0.1


Tree=61
num_leaves=17
num_cat=0
split_feature=1 18 1 1 25 1 25 25 1 1 1 25 25 1 1 1
split_gain=5.6121 1.80219 3.27252 1.4064 0.965955 0.777285 0.599274 0.546916 0.495209 0.422037 0.298463 0.163222 0.0863975 0.019608 0.00445014 0.000124991
threshold=13.200000000000001 1.0000000180025095e-35 5.5000000000000009 2.5000000000000004 1.0000000180025095e-35 10.000000000000002 1.0000000180025095e-35 1.0000000180025095e-35 2.5000000000000004 20.850000000000005 29.300000000000001 1.0000000180025095e-35 1.0000000180025095e-35 27.450000000000003 16.600000000000005 19.900000000000002
decision_type=2 2 2 2 2 2 2 2 2 2 2 2 2 2 2 2
left_child=1 2 3 7 -5 11 9 -1 -3 -2 -11 -4 -7 14 -8 -16
right_child=6 8 5 4 -6 12 13 -9 -10 10 -12 -13 -14 -15 15 -17
leaf_value=-0.014704402033701235 0.0014421735471580775 -0.0018976255407584437 -0.011695010680896069 0.021781493300618588 0.060181367242211015 -0.017371785982586627 -0.11427759786668545 0.021574274190778186 -0.019502875291340382 -0.10848289368595326 -0.044873451489612325 0.0036423242532493526 -0.035671798469850018 -0.12256817359141273 -0.10544714778693823 -0.10349188607882527
leaf_weight=6.2982613295316705 0.90826526843011413 32.485157415270805 8.8464524894952756 10.870535582304003 16.485255680978298 3.973174873739481 0.71204829402267922 12.213896449655294 31.441241636872292 1.467644823715091 1.4830109635367987 32.175403416156769 7.3568431353196484 1.6670151054859159 0.6432100338861344 0.66491413395851851
leaf_count=33 24 138 77 59 88 58 13 68 138 34 28 196 80 24 18 23
internal_value=0 0.00251142 0.0110167 0.0305175 0.0449222 -0.00606892 -0.085711 0.00923144 -0.0105565 -0.0581645 -0.0765125 0.000334795 -0.0292544 -0.11454 -0.107916 -0.104453
internal_weight=0 162.146 98.2198 45.8679 27.3558 52.3519 7.54611 18.5122 63.9264 3.85892 2.95066 41.0219 11.33 3.68719 2.02017 1.30812
internal_count=1099 935 659 248 147 411 164 101 276 86 62 273 138 78 54 41
is_linear=0
shrinkage=0.1


Tree=62
num_leaves=7
num_cat=0
split_feature=0 18 18 0 0 0
split_gain=4.98751 1.26284 0.856143 1.06058 0.243595 0.0402633
threshold=9.0000000000000018 1.0000000180025095e-35 1.0000000180025095e-35 29.000000000000004 19.000000000000004 39.000000000000007
decision_type=2 2 2 2 2 2
left_child=1 -1 3 4 -2 -5
right_child=2 -3 -4 5 -6 -7
leaf_value=0.024234686033695545 -0.0037891067681257158 0.0015618902360599893 -0.041570795487681916 -0.050833702587127029 -0.019267170191291941 -0.036993658873869427
leaf_weight=50.799991181120276 29.471836121752858 47.571129202842712 16.396546840667725 6.175578370690344 15.523844141513107 3.1866660229861736
leaf_count=330 293 199 77 51 110 39
internal_value=0 0.0132704 -0.0215422 -0.0155007 -0.00912915 -0.0461229
internal_weight=0 98.3711 70.7545 54.3579 44.9957 9.36224
internal_count=1099 529 570 493 403 90
is_linear=0
shrinkage=0.1


Tree=63
num_leaves=13
num_cat=0
split_feature=1 1 24 1 1 1 1 1 16 1 1 1
split_gain=4.94389 1.10134 1.01883 1.34926 0.351504 0.320008 0.547859 0.340643 0.231001 0.00986064 0.00372259 0.000287085
threshold=13.200000000000001 5.5000000000000009 1.0000000180025095e-35 10.000000000000002 2.5000000000000004 29.650000000000002 28.600000000000005 18.250000000000004 1.0000000180025095e-35 37.95000000000001 24.950000000000003 22.150000000000002
decision_type=2 2 2 2 2 2 2 2 2 2 2 2
left_child=1 4 3 8 -1 6 7 -2 -3 -7 11 -9
right_child=5 2 -4 -5 -6 9 -8 10 -10 -11 -12 -13
leaf_value=0.0022896297810208878 -0.04826986737791885 -0.011109582494210679 0.015662025144294874 -0.054145757053374002 0.013776085220239643 -0.10719921048499254 0.0059884655793626812 -0.10418721348574628 0.014187869458367681 -0.12049196878876078 -0.11409475305385081 -0.10679835832491658
leaf_weight=50.798129457980394 1.6092575993388885 30.101423051208258 12.722083419561384 7.8085565334185949 56.023393735289574 1.044550600461662 0.81812501419335593 0.96937832143157743 4.1014245003461829 1.1981832804158328 0.6737690633162855 0.74441243428736925
leaf_count=239 38 220 62 121 273 25 10 34 20 19 20 18
internal_value=0 0.00240365 -0.00913098 -0.0166389 0.00831379 -0.0831007 -0.0685682 -0.0838295 -0.00807605 -0.114301 -0.107797 -0.105321
internal_weight=0 161.555 54.7335 42.0114 106.822 7.05768 4.81494 3.99682 34.2028 2.24273 2.38756 1.71379
internal_count=1099 935 423 361 512 164 120 110 240 44 72 52
is_linear=0
shrinkage=0.1


Tree=64
num_leaves=4
num_cat=0
split_feature=17 25 25
split_gain=4.58941 0.0217143 0.011442
threshold=1.0000000180025095e-35 1.0000000180025095e-35 1.0000000180025095e-35
decision_type=2 2 2
left_child=2 -2 -1
right_child=1 -3 -4
leaf_value=0.0057353175491847291 -0.049409442087920169 -0.057827168086132245 0.0035497212163191991
leaf_weight=29.709668542258441 4.4420994417741886 9.8813584027811867 123.62418302055448
leaf_count=244 73 127 655
internal_value=0 -0.0552166 0.0039732
internal_weight=0 14.3235 153.334
internal_count=1099 200 899
is_linear=0
shrinkage=0.1


Tree=65
num_leaves=12
num_cat=0
split_feature=1 16 11 16 1 1 1 1 1 1 1
split_gain=4.40692 1.89114 1.52837 1.38065 0.994777 0.642524 0.253311 0.811215 0.296749 0.169555 0.000108817
threshold=10.000000000000002 1.0000000180025095e-35 1.0000000180025095e-35 1.0000000180025095e-35 29.650000000000002 2.5000000000000004 13.200000000000001 26.950000000000003 18.250000000000004 5.5000000000000009 22.650000000000002
decision_type=2 2 2 2 2 2 2 2 2 2 2
left_child=1 2 5 4 6 -1 -2 8 -8 -7 -10
right_child=3 -3 -4 -5 -6 9 7 -9 10 -11 -12
leaf_value=-0.0046432502387302749 -0.020266683003983061 0.054877216479918861 -0.055318748666979195 -0.12327481605849233 -0.11424736901713745 0.013084086458387234 -0.040461901242247605 0.054099255083860223 -0.10435289917525448 0.0042722484985425043 -0.10254433757241813
leaf_weight=48.052647262811661 9.6200636737048644 7.3576406314969054 4.3722921088337889 2.1525420360267153 1.5157824074849475 55.759166747331619 1.4407270252704618 0.60464317351579655 1.0323190111666916 35.892174676060677 0.4908769829198717
leaf_count=223 135 40 37 22 36 272 37 15 39 235 24
internal_value=0 0.00542596 0.0029006 -0.048475 -0.0375253 0.00472268 -0.0287075 -0.0514621 -0.0729967 0.00963323 -0.10377
internal_weight=0 151.434 144.076 16.857 14.7044 139.704 13.1886 3.56857 2.96392 91.6513 1.5232
internal_count=1115 807 767 308 286 730 250 115 100 507 63
is_linear=0
shrinkage=0.1


Tree=66
num_leaves=4
num_cat=0
split_feature=3 14 16
split_gain=3.75862 0.687183 0.0610385
threshold=1.0000000180025095e-35 1.0000000180025095e-35 1.0000000180025095e-35
decision_type=2 2 2
left_child=1 2 -1
right_child=-2 -3 -4
leaf_value=0.0050299931988008742 -0.049929800081343338 -0.038298822875645178 0.013428600617414577
leaf_weight=140.75432061450556 13.828101243823765 3.6618955153971902 9.2202993780374509
leaf_count=878 155 20 62
internal_value=0 0.00450129 0.00554633
internal_weight=0 153.637 149.975
internal_count=1115 960 940
is_linear=0
shrinkage=0.1


Tree=67
num_leaves=14
num_cat=0
split_feature=1 18 24 1 1 1 1 1 1 24 1 1 1
split_gain=3.70088 2.88546 1.82011 1.16371 0.481968 0.275386 0.258025 0.271907 0.279608 0.182762 0.0958257 4.22002e-05 1.5287e-05
threshold=10.000000000000002 1.0000000180025095e-35 1.0000000180025095e-35 5.5000000000000009 2.5000000000000004 29.650000000000002 26.950000000000003 18.250000000000004 16.050000000000004 1.0000000180025095e-35 2.5000000000000004 22.150000000000002 34.350000000000001
decision_type=2 2 2 2 2 2 2 2 2 2 2 2 2
left_child=1 3 5 4 -1 6 7 8 -2 -5 -3 -9 -7
right_child=2 10 -4 9 -6 12 -8 11 -10 -11 -12 -13 -14
leaf_value=0.014230863603464358 -0.063192143377599874 -0.0073061225198896686 0.014753004964549786 0.00051223505616351838 0.035236968703480663 -0.10654123551850002 -0.0091370968473895708 -0.1028879756010759 -0.0067247989000129675 0.016944255550247873 -0.015006412619558207 -0.1039648288817682 -0.10587392599079018
leaf_weight=17.301027458161116 7.6183609990403038 32.962220653891563 3.8453389778733245 30.530986797064543 29.626924224197865 0.66324425116181263 0.95786694902926761 0.74083718471229143 0.99097683653235424 8.6967307031154615 31.706093832850456 0.71527695283293724 0.71163750812411308
leaf_count=97 134 141 23 224 163 18 18 35 28 42 140 30 22
internal_value=0 0.0048835 -0.0453534 0.0168668 0.0274926 -0.0639956 -0.0587322 -0.0634519 -0.0566925 0.00415519 -0.0110815 -0.103417 -0.106196
internal_weight=0 150.824 16.2435 86.1557 46.928 12.3982 11.0233 10.0655 8.60934 39.2277 64.6683 1.45611 1.37488
internal_count=1115 807 308 526 260 285 245 227 162 266 281 65 40
is_linear=0
shrinkage=0.1


Tree=68
num_leaves=9
num_cat=0
split_feature=3 0 18 0 0 0 0 0
split_gain=3.23891 2.63042 3.4687 2.13879 0.379694 0.35691 0.205055 0.151429
threshold=1.0000000180025095e-35 29.000000000000004 1.0000000180025095e-35 19.000000000000004 9.0000000000000018 49.000000000000007 9.0000000000000018 9.0000000000000018
decision_type=2 2 2 2 2 2 2 2
left_child=1 2 3 7 -4 -3 -2 -1
right_child=6 5 4 -5 -6 -7 -8 -9
leaf_value=0.032515558269612575 -0.034146664523535215 -0.038517019305232519 -0.0054718063887352402 -0.013257105336749854 -0.023021189640947664 -0.086264318492415698 -0.058943798165860199 0.022479464497575249
leaf_weight=41.948943883180618 6.3324196431785804 6.2785460641607624 48.137612089514732 14.73328937590122 16.572988033294678 2.0855509638786316 7.0445929407142103 23.431984207592905
leaf_count=273 55 53 202 93 79 33 100 227
internal_value=0 0.00410436 0.00725346 0.0211624 -0.00996637 -0.0504226 -0.0472053 0.0289187
internal_weight=0 153.189 144.825 80.1142 64.7106 8.3641 13.377 65.3809
internal_count=1115 960 874 593 281 86 155 500
is_linear=0
shrinkage=0.1


Tree=69
num_leaves=14
num_cat=0
split_feature=1 18 1 1 1 1 1 1 1 1 16 1 1
split_gain=3.3033 1.46271 1.75194 0.650166 0.432005 0.375712 0.456915 0.497832 0.595645 0.0736676 0.0164937 0.00754897 1.3985e-05
threshold=13.200000000000001 1.0000000180025095e-35 5.5000000000000009 10.000000000000002 2.5000000000000004 29.650000000000002 18.100000000000005 20.450000000000003 28.600000000000005 2.5000000000000004 1.0000000180025095e-35 37.95000000000001 22.650000000000002
decision_type=2 2 2 2 2 2 2 2 2 2 2 2 2
left_child=1 2 4 10 -1 6 -2 -8 12 -3 -4 -7 -9
right_child=5 9 3 -5 -6 11 7 8 -10 -11 -12 -13 -14
leaf_value=0.011769975636834837 -0.10783912865168305 -0.0056729695023707248 0.0037599734296925821 -0.025555548735485396 0.031697454162612708 -0.10527165325605832 0.040668233318878838 -0.10375327269595831 0.0074896579346792717 -0.012427421265956836 -0.0032058756948944132 -0.11819441920560321 -0.10305238408708813
leaf_weight=17.24401992931962 1.2235572561621659 32.921395674347878 35.253193348646164 9.944019388407467 29.472399353981018 0.84288075333461143 0.66861849743872914 0.45832111081108473 0.80988373886793841 31.690708860754967 3.7618631273508063 0.97486164886504412 0.75144666573032737
leaf_count=97 35 141 247 140 163 28 21 22 10 140 19 16 36
internal_value=0 0.00263858 0.0104889 -0.0027295 0.0243418 -0.0746366 -0.0571806 -0.0341236 -0.0588839 -0.00898587 0.00308832 -0.112202 -0.103318
internal_weight=0 160.288 95.6755 48.9591 46.7164 5.72957 3.91183 2.68827 2.01965 64.6121 39.0151 1.81774 1.20977
internal_count=1115 947 666 406 260 168 124 89 68 281 266 44 58
is_linear=0
shrinkage=0.1


Tree=70
num_leaves=8
num_cat=0
split_feature=3 0 22 0 0 0 0
split_gain=1.91646 1.74189 1.08083 0.869667 0.13198 0.0483106 0.000669947
threshold=1.0000000180025095e-35 29.000000000000004 1.0000000180025095e-35 9.0000000000000018 19.000000000000004 9.0000000000000018 39.000000000000007
decision_type=2 2 2 2 2 2 2
left_child=1 2 3 -1 -5 -2 -3
right_child=5 6 -4 4 -6 -7 -8
leaf_value=0.01304634967182014 -0.030613198450896759 -0.040224190151599143 -0.047208417177319072 -0.0060602314158096655 0.0054231691125834341 -0.042817543589491865 -0.038434066442104065
leaf_weight=87.861582176759839 6.1078684180974943 5.8436424992978555 3.7851462606340638 39.700009929016232 13.382113268598912 6.9163097655400634 3.255194179713726
leaf_count=464 55 47 24 298 88 103 43
internal_value=0 0.00285643 0.00552457 0.00694075 -0.00316524 -0.0370941 -0.0395838
internal_weight=0 153.828 144.729 140.944 53.0821 13.0242 9.09884
internal_count=1122 964 874 850 386 158 90
is_linear=0
shrinkage=0.1


Tree=71
num_leaves=4
num_cat=0
split_feature=11 16 14
split_gain=2.14205 0.430391 0.26961
threshold=1.0000000180025095e-35 1.0000000180025095e-35 1.0000000180025095e-35
decision_type=2 2 2
left_child=1 2 -1
right_child=-2 -3 -4
leaf_value=0.0012254375357052126 -0.063275522580141796 0.023076627418929154 -0.025552691015633618
leaf_weight=148.03349307132885 5.2219004938378921 8.9790982063859683 3.857878426089882
leaf_count=959 81 61 21
internal_value=0 0.0018029 0.000545302
internal_weight=0 160.87 151.891
internal_count=1122 1041 980
is_linear=0
shrinkage=0.1


Tree=72
num_leaves=4
num_cat=0
split_feature=17 3 16
split_gain=3.10359 2.03 0.173763
threshold=1.0000000180025095e-35 1.0000000180025095e-35 1.0000000180025095e-35
decision_type=2 2 2
left_child=1 2 -1
right_child=-2 -3 -4
leaf_value=0.0064341908561728256 -0.045902996291069031 -0.034392724643282059 0.020836430279758331
leaf_weight=130.55385154765099 13.649598036427049 12.706267926841972 8.9515470936894399
leaf_count=705 198 158 61
internal_value=0 0.00387305 0.00735833
internal_weight=0 152.212 139.505
internal_count=1122 924 766
is_linear=0
shrinkage=0.1


Tree=73
num_leaves=14
num_cat=0
split_feature=1 11 1 3 1 1 1 1 1 1 1 1 1
split_gain=3.09858 1.04157 0.987125 0.920743 0.249863 0.513368 0.200628 0.717578 0.0323948 0.0311876 0.00679636 0.000106419 1.58368e-05
threshold=10.000000000000002 1.0000000180025095e-35 18.250000000000004 1.0000000180025095e-35 2.5000000000000004 5.5000000000000009 29.300000000000001 34.350000000000001 5.5000000000000009 13.200000000000001 27.450000000000003 23.350000000000005 20.950000000000003
decision_type=2 2 2 2 2 2 2 2 2 2 2 2 2
left_child=1 3 9 4 -1 -6 10 -8 -5 -2 11 12 -4
right_child=2 -3 6 8 5 -7 7 -9 -10 -11 -12 -13 -14
leaf_value=0.0022196348339328684 -0.025892502678490664 -0.046971540060865652 -0.10374182830409709 -0.027417033317842156 0.017686562665039009 0.0018846443870567855 0.0085844578895077697 -0.11381566564480822 -0.016529748841428597 -0.041536405855271082 -0.11587195176637043 -0.10217356607125305 -0.10454730826965875
leaf_weight=50.242037959396839 9.9175368882715684 3.8776590377092353 0.52153647271916204 5.8305356204509717 49.486995294690132 35.171232534572482 0.82080137776210893 1.1500766705721615 5.1442799046635628 1.4622515812516201 0.66547909611836065 0.39436166593804955 0.45884988643229008
leaf_count=232 139 35 23 39 241 208 20 29 58 40 12 26 20
internal_value=0 0.00418042 -0.0429382 0.00554015 0.0078062 0.0111217 -0.0855951 -0.0628403 -0.0223138 -0.0279027 -0.107576 -0.103561 -0.104119
internal_weight=0 149.753 15.3909 145.875 134.9 84.6582 4.01111 1.97088 10.9748 11.3798 2.04023 1.37475 0.980386
internal_count=1122 813 309 778 681 449 130 49 97 179 81 69 43
is_linear=0
shrinkage=0.1


Tree=74
num_leaves=15
num_cat=0
split_feature=1 17 1 1 1 1 1 1 1 1 1 1 1 1
split_gain=2.66071 2.31401 0.377589 0.337804 0.357048 0.321434 0.595951 0.341002 0.150611 0.451729 0.150381 0.0043013 0.00414651 3.18947e-05
threshold=13.200000000000001 1.0000000180025095e-35 2.5000000000000004 2.5000000000000004 5.5000000000000009 29.650000000000002 28.600000000000005 18.250000000000004 5.5000000000000009 10.000000000000002 10.000000000000002 25.900000000000002 37.95000000000001 22.150000000000002
decision_type=2 2 2 2 2 2 2 2 2 2 2 2 2 2
left_child=1 3 -3 -1 -5 6 7 -2 -4 -10 -6 13 -7 -9
right_child=5 2 8 4 10 12 -8 11 9 -11 -12 -13 -14 -15
leaf_value=-0.0010839220179065087 -0.038770180953407105 0.0064670926855671471 -0.030513889191665977 0.014711483738082679 0.0052849175872948517 -0.103920903318689 0.029126396630762792 -0.10291865159972267 -0.041674376413850432 -0.10454232160028416 -0.0096010067206676614 -0.11520215783920125 -0.11460738064052894 -0.10398566333152189
leaf_weight=49.942388374358416 1.412596329115331 1.5736840218305577 3.9997406378388387 51.724268712103367 36.74198941141367 0.62670206883922197 0.68435255903750647 0.64388006227090933 5.4242903310805559 1.4480410218238828 8.3239216366782767 0.42187291616573919 0.86319298762828112 0.49590367870405316
leaf_count=232 40 14 28 251 227 27 9 36 61 47 92 15 19 24
internal_value=0 0.00208421 -0.0393151 0.00559567 0.00904225 -0.0709574 -0.0550124 -0.0743721 -0.0459419 -0.054921 0.00253541 -0.106576 -0.110112 -0.103383
internal_weight=0 159.178 12.4458 146.733 96.7902 5.1485 3.65861 2.97425 10.8721 6.87233 45.0659 1.56166 1.4899 1.13978
internal_count=1122 952 150 802 570 170 124 115 136 108 319 75 46 60
is_linear=0
shrinkage=0.1


Tree=75
num_leaves=16
num_cat=0
split_feature=1 18 1 25 1 1 1 1 1 25 25 1 1 1 25
split_gain=1.88734 1.94348 2.69188 4.58684 1.7452 0.449042 0.334576 0.682305 0.120167 0.89384 0.0873667 0.0232787 0.00489485 6.50362e-05 1.33827e-05
threshold=18.250000000000004 1.0000000180025095e-35 5.5000000000000009 1.0000000180025095e-35 2.5000000000000004 2.5000000000000004 29.300000000000001 34.350000000000001 10.000000000000002 1.0000000180025095e-35 1.0000000180025095e-35 2.5000000000000004 27.450000000000003 23.350000000000005 1.0000000180025095e-35
decision_type=2 2 2 2 2 2 2 2 2 2 2 2 2 2 2
left_child=1 2 3 4 -1 -5 12 -8 10 -10 -4 -3 13 14 -2
right_child=6 11 8 5 -6 -7 7 -9 9 -11 -12 -13 -14 -15 -16
leaf_value=-0.064148841468345194 -0.10376314886340293 -0.014017884153743641 -0.016138713108430607 0.032877954162003023 0.0054332275861605607 0.057938837670339638 0.0262063768461917 -0.11038548829998836 0.019728290133943536 -0.04175511187710218 -0.0045874932951760058 -0.017823883848699047 -0.1135263052273255 -0.10175768621866361 -0.10295475503839323
leaf_weight=5.6047401726245853 0.43344989279285062 32.120141685009003 8.3593109250068647 12.233784906566145 10.100363984704018 17.204870767891407 0.72287419298663713 0.74014289490878582 3.7252933345735073 6.4732229970395547 30.213522471487522 32.160686537623405 0.68585680238902558 0.3526307288557291 0.38818331807851736
leaf_count=32 23 138 79 70 58 96 18 24 74 104 193 143 12 28 21
internal_value=0 -0.00252473 0.00664518 0.0242424 -0.0193988 0.0475243 -0.0786739 -0.0428957 -0.00964315 -0.0192966 -0.00709082 -0.0159221 -0.106814 -0.102894 -0.103381
internal_weight=0 158.196 93.9151 45.1438 15.7051 29.4387 3.32314 1.46302 48.7713 10.1985 38.5728 64.2808 1.86012 1.17426 0.821633
internal_count=1113 987 706 256 90 166 126 42 450 178 272 281 84 72 44
is_linear=0
shrinkage=0.1


Tree=76
num_leaves=16
num_cat=0
split_feature=17 3 1 1 1 1 1 1 1 1 1 1 1 1 1
split_gain=3.12685 2.05134 0.678907 1.04674 0.920073 0.638345 0.485143 0.216143 0.163324 0.161456 0.75883 0.0714602 0.849367 0.000149835 4.25167e-05
threshold=1.0000000180025095e-35 1.0000000180025095e-35 2.5000000000000004 5.5000000000000009 13.200000000000001 10.000000000000002 29.650000000000002 5.5000000000000009 10.000000000000002 18.250000000000004 27.850000000000005 5.5000000000000009 10.000000000000002 13.200000000000001 18.100000000000005
decision_type=2 2 2 2 2 2 2 2 2 2 2 2 2 2 2
left_child=1 2 -1 -4 8 7 9 -2 -5 -6 -11 -3 -13 -7 -15
right_child=5 11 3 4 6 13 -8 -9 -10 10 -12 12 -14 14 -16
leaf_value=-0.0057931857817589121 -0.02843946538927293 -0.048833119852589285 0.019096299238453799 -0.0011378677429237818 0.0088484338097236676 -0.10393330991635137 -0.10830810031195411 -0.056336836304468431 0.016302707481955819 -0.10739105270715565 0.033894212610731 -0.014149108772592284 -0.10365248676018708 -0.10287448912518171 -0.1012902931596817
leaf_weight=47.457432683557272 6.0389217026531679 5.1465877592563611 47.75522044301033 31.358334895223379 0.82021544873714436 1.270794748328625 1.0642142095603047 5.1420215051621199 6.4787963218986979 0.87533198203891494 0.67197824269533157 5.0357288829982281 1.3430483881384132 0.34305063914507616 0.33469617646187544
leaf_count=216 46 36 225 167 14 48 29 61 57 35 10 58 60 18 33
internal_value=0 0.000445528 0.00386665 0.00901617 -0.00264829 -0.0504741 -0.0522277 -0.0412692 0.00184846 -0.0270194 -0.0460326 -0.0400669 -0.032994 -0.103293 -0.102092
internal_weight=0 148.007 136.482 89.0241 41.2689 13.1295 3.43174 11.1809 37.8371 2.36753 1.54731 11.5254 6.37878 1.94854 0.677747
internal_count=1113 907 753 537 312 206 88 107 224 59 45 154 118 99 51
is_linear=0
shrinkage=0.1


Tree=77
num_leaves=4
num_cat=0
split_feature=11 18 25
split_gain=2.3576 2.02406 0.393463
threshold=1.0000000180025095e-35 1.0000000180025095e-35 1.0000000180025095e-35
decision_type=2 2 2
left_child=1 2 -1
right_child=-2 -3 -4
leaf_value=-0.0025255198680896934 -0.074477588626633326 -0.01489815069261074 0.012262513354457131
leaf_weight=24.651125918142498 4.5317186131142071 64.283628106117249 66.605565817095339
leaf_count=238 77 281 517
internal_value=0 -0.00130649 0.00826783
internal_weight=0 155.54 91.2567
internal_count=1113 1036 755
is_linear=0
shrinkage=0.1


Tree=78
num_leaves=11
num_cat=0
split_feature=0 18 25 25 0 18 0 0 0 0
split_gain=3.25444 2.70155 1.45181 0.894897 2.12585 2.25382 1.83607 0.421586 0.0209409 0.243508
threshold=9.0000000000000018 1.0000000180025095e-35 1.0000000180025095e-35 1.0000000180025095e-35 19.000000000000004 1.0000000180025095e-35 19.000000000000004 29.000000000000004 29.000000000000004 49.000000000000007
decision_type=2 2 2 2 2 2 2 2 2 2
left_child=1 2 -1 6 5 -5 -2 -8 -6 -10
right_child=3 -3 -4 4 8 -7 7 -9 9 -11
leaf_value=0.005937497069767407 -0.090963362326028196 -0.0074302657977067714 0.042382548989110369 0.017741588190764795 -0.041221564430528962 -0.030112840846803237 0.018918448051219276 -0.041195617365011837 -0.036671755473524879 -0.080260968207721675
leaf_weight=19.056827623397112 4.8919567004777473 47.39584781229496 25.631748674437404 23.511312061920762 11.152441018726678 16.927734702825546 3.0057584256865084 1.9066771543584762 4.78327588061802 1.7506722081452606
leaf_count=147 110 199 177 189 79 82 33 22 46 29
internal_value=0 0.00920161 0.0268411 -0.0196516 -0.0149376 -0.00229022 -0.0475982 -0.00441379 -0.0438554 -0.0483508
internal_weight=0 92.0844 44.6886 67.9298 58.1254 40.439 9.80439 4.91244 17.6864 6.53395
internal_count=1113 523 324 590 425 271 165 55 154 75
is_linear=0
shrinkage=0.1


Tree=79
num_leaves=12
num_cat=0
split_feature=1 16 1 1 1 1 1 1 1 1 1
split_gain=1.35671 0.915545 0.448036 0.87111 0.327897 1.252 0.34005 0.666528 0.0123902 0.00316086 3.03059e-05
threshold=13.200000000000001 1.0000000180025095e-35 2.5000000000000004 5.5000000000000009 18.100000000000005 20.450000000000003 29.300000000000001 34.350000000000001 10.000000000000002 27.450000000000003 22.950000000000003
decision_type=2 2 2 2 2 2 2 2 2 2 2
left_child=1 2 -1 -4 -2 -6 9 -8 -5 10 -7
right_child=4 -3 3 8 5 6 7 -9 -10 -11 -12
leaf_value=-0.010976405952496033 -0.10821095101248242 0.032569670530363033 0.0093146684746130189 -0.010211448121667572 0.10946724243182993 -0.10286508580804653 0.03419357577359395 -0.10909864328517685 -0.0058847484577997621 -0.11215113435366267 -0.10149700531641959
leaf_weight=47.838463939726353 1.0404482162557531 7.600646134465932 54.494965687394142 37.315821103751659 0.45653624041006002 0.31852137460373364 0.67902471264824249 0.6219528776127845 8.0455914875492436 0.62170523637905717 0.32934451033361256
leaf_count=229 37 43 274 267 20 23 18 24 135 12 31
internal_value=0 -0.00127715 -0.00301897 0.000793216 -0.059782 -0.0431363 -0.0702391 -0.0343095 -0.00944404 -0.107058 -0.10217
internal_weight=0 155.295 147.695 99.8564 4.06753 3.02708 2.57055 1.30098 45.3614 1.26957 0.647866
internal_count=1113 948 905 676 165 128 108 42 402 66 54
is_linear=0
shrinkage=0.1


Tree=80
num_leaves=4
num_cat=0
split_feature=17 22 16
split_gain=4.72734 0.42466 0.0608337
threshold=1.0000000180025095e-35 1.0000000180025095e-35 1.0000000180025095e-35
decision_type=2 2 2
left_child=1 2 -1
right_child=-2 -3 -4
leaf_value=0.0081622455269342569 -0.055619001192123166 -0.024489961037614957 0.016952968811807696
leaf_weight=135.38072928390466 12.777615359984337 3.9678034642711273 8.358198734931646
leaf_count=827 206 26 60
internal_value=0 0.00778255 0.00867341
internal_weight=0 147.707 143.739
internal_count=1119 913 887
is_linear=0
shrinkage=0.1


Tree=81
num_leaves=15
num_cat=0
split_feature=17 11 1 1 1 1 1 1 1 1 1 1 1 1
split_gain=3.97453 1.45664 0.543066 0.521356 1.00003 0.342938 0.268329 0.193711 0.160582 0.19572 0.00264992 0.00244259 0.00011188 1.88153e-05
threshold=1.0000000180025095e-35 1.0000000180025095e-35 2.5000000000000004 10.000000000000002 18.250000000000004 10.000000000000002 29.300000000000001 5.5000000000000009 2.5000000000000004 5.5000000000000009 5.5000000000000009 27.450000000000003 13.200000000000001 18.100000000000005
decision_type=2 2 2 2 2 2 2 2 2 2 2 2 2 2
left_child=1 3 -2 8 -5 10 11 -3 -1 -10 -4 -6 -7 -14
right_child=2 7 5 4 6 12 -8 -9 9 -11 -12 -13 13 -15
leaf_value=0.0059240168164920084 0.0009519704295339014 -0.075971164677935604 -0.050964883813904349 0.0034346984388470788 -0.10295099714200946 -0.10348017321877048 -0.039750229115465288 -0.032843315071045147 0.017208049016757626 0.0073716227850963616 -0.054423746482539448 -0.11264641408878309 -0.10231866402183837 -0.10113513204592604
leaf_weight=48.529533632099628 1.661333855241536 1.7332422658801068 3.9446891620755178 8.9813518887385708 0.55996160139329665 1.0820226776413608 1.3316490505822001 2.6092942203395069 49.118971195071936 34.391611311584711 5.0512789227068424 0.48482856526970863 0.26339797256514419 0.27410695143043995
leaf_count=223 16 13 30 103 36 47 23 66 239 203 64 7 17 32
internal_value=0 0.00700236 -0.0522129 0.00873029 -0.0118287 -0.0605332 -0.0695142 -0.050057 0.0104987 0.0131572 -0.0529071 -0.10745 -0.102894 -0.101715
internal_weight=0 147.74 12.2768 143.398 11.3578 10.6155 2.37644 4.34254 132.04 83.5106 8.99597 1.04479 1.61953 0.537505
internal_count=1119 913 206 834 169 190 66 79 665 442 94 43 96 49
is_linear=0
shrinkage=0.1


Tree=82
num_leaves=4
num_cat=0
split_feature=17 22 14
split_gain=3.34587 0.340878 0.0769958
threshold=1.0000000180025095e-35 1.0000000180025095e-35 1.0000000180025095e-35
decision_type=2 2 2
left_child=1 2 -1
right_child=-2 -3 -4
leaf_value=0.0074760532173284815 -0.049028513081609465 -0.022737543051611315 -0.0073764859998982401
leaf_weight=139.91388074611314 11.800589308608322 3.9323550863191477 3.5796230910345903
leaf_count=867 206 26 20
internal_value=0 0.00630952 0.00710554
internal_weight=0 147.426 143.494
internal_count=1119 913 887
is_linear=0
shrinkage=0.1


Tree=83
num_leaves=18
num_cat=0
split_feature=1 18 1 25 1 25 1 1 1 1 25 1 25 1 1 1 1
split_gain=1.53286 1.22866 1.25879 0.749312 0.547363 0.530738 0.701746 0.366581 0.246717 0.183037 0.106824 0.00143679 0.00142369 0.00128112 0.00190728 0.000205696 6.24336e-07
threshold=13.200000000000001 1.0000000180025095e-35 5.5000000000000009 1.0000000180025095e-35 18.550000000000004 1.0000000180025095e-35 2.5000000000000004 29.300000000000001 2.5000000000000004 10.000000000000002 1.0000000180025095e-35 2.5000000000000004 1.0000000180025095e-35 27.450000000000003 16.300000000000001 24.350000000000005 18.850000000000005
decision_type=2 2 2 2 2 2 2 2 2 2 2 2 2 2 2 2 2
left_child=1 2 5 4 -2 6 -1 15 -3 12 -11 -7 -4 14 -5 -6 -16
right_child=3 8 9 13 7 11 -8 -9 -10 10 -12 -13 -14 -15 16 -17 -18
leaf_value=-0.01662791759614432 0.063338570879800354 -0.0011011894835435503 0.0017046208644713543 -0.11126070337099499 -0.10244335305692046 0.032633935433784976 0.026177721346410599 -0.0096868735107640824 -0.01357458280383108 0.0017580438045219503 -0.020422616928270819 0.031158262032399388 0.0032102383797531255 -0.11139855724929693 -0.10216169741231154 -0.10584332784450841 -0.10194454608451929
leaf_weight=6.451383359730241 0.57221936946734819 32.857853248715401 7.9036777894943944 0.39076755382120543 0.33747228002175667 11.005903977900745 9.4247568473219872 0.96354113589040935 30.648373305797577 3.3557579037733376 6.1516509065404517 16.474212646484375 30.57814341597259 0.8185244717169553 0.26056703389622271 0.37641152692958713 0.26917937118560076
leaf_count=36 16 141 80 11 26 66 58 31 137 62 80 94 198 22 16 18 27
internal_value=0 0.00356212 0.0109893 -0.0592234 -0.0211156 0.0233396 0.00878334 -0.0499254 -0.0071209 -0.000168732 -0.0125937 0.0317493 0.002901 -0.10852 -0.105961 -0.104236 -0.102051
internal_weight=0 154.852 91.3455 3.98868 2.24964 43.3563 15.8761 1.67742 63.5062 47.9892 9.50741 27.4801 38.4818 1.73904 0.920514 0.713884 0.529746
internal_count=1119 952 674 167 91 254 94 75 278 420 142 160 278 76 54 44 43
is_linear=0
shrinkage=0.1


Tree=84
num_leaves=7
num_cat=0
split_feature=3 0 0 0 0 0
split_gain=3.09046 2.81319 0.131136 0.0237503 0.0212145 0.000678491
threshold=1.0000000180025095e-35 9.0000000000000018 29.000000000000004 19.000000000000004 49.000000000000007 9.0000000000000018
decision_type=2 2 2 2 2 2
left_child=1 -1 3 -3 -4 -2
right_child=5 2 4 -5 -6 -7
leaf_value=0.01699538825140956 -0.047953388339834285 -0.0081174768813174255 -0.020466777788657443 -0.012960576668095204 -0.032699811948404003 -0.049514589131640849
leaf_weight=87.922684862278402 5.1130320988595468 38.366903948830441 5.4576983591541639 13.756049925927071 1.9150703304912893 6.1105298304464668
leaf_count=485 51 305 52 92 33 101
internal_value=0 0.00563178 -0.0111614 -0.00939565 -0.0236443 -0.0488034
internal_weight=0 147.418 59.4957 52.123 7.37277 11.2236
internal_count=1119 967 482 397 85 152
is_linear=0
shrinkage=0.1


Tree=85
num_leaves=14
num_cat=0
split_feature=18 1 1 25 1 25 1 1 1 1 1 1 1
split_gain=2.10493 1.731 0.74577 0.65272 0.977619 0.441915 0.260761 0.345122 0.19214 0.0452197 0.00660894 0.00097316 0.000882719
threshold=1.0000000180025095e-35 10.000000000000002 29.650000000000002 1.0000000180025095e-35 5.5000000000000009 1.0000000180025095e-35 18.100000000000005 22.650000000000002 2.5000000000000004 2.5000000000000004 5.5000000000000009 2.5000000000000004 37.95000000000001
decision_type=2 2 2 2 2 2 2 2 2 2 2 2 2
left_child=1 3 5 10 8 6 -3 -8 -5 -2 11 -1 -4
right_child=9 2 12 4 -6 -7 7 -9 -10 -11 -12 -13 -14
leaf_value=-0.00039842518547611948 -0.012435738963226074 -0.0097334807146725148 -0.10404184470473431 0.022660742764563594 0.0067376992222679946 -0.035898116641763414 0.1139756316642971 0.0047364729103610247 0.039391882173993122 -0.017816172866258164 0.0022378209876770146 -0.0019768796441762509 -0.10985572974178742
leaf_weight=6.7706162445247218 30.770821705460548 3.7431109538301817 0.5209787138737727 11.450649987906219 29.489134022966027 6.5164349623955777 0.44261649809777714 0.83446150668896735 17.135051991790533 31.725510075688362 7.821251953020691 9.2313425540924072 0.52362677222117782
leaf_count=38 132 76 26 68 195 129 23 29 99 142 77 57 17
internal_value=0 0.00848883 -0.0260458 0.0137941 0.0195119 -0.0187196 0.00357883 0.0425972 0.0326898 -0.0151671 -0.000144576 -0.00130902 -0.106956
internal_weight=0 94.4793 12.5812 81.898 58.0748 11.5366 5.02019 1.27708 28.5857 62.4963 23.8232 16.002 1.04461
internal_count=1108 834 300 534 362 257 128 52 167 274 172 95 43
is_linear=0
shrinkage=0.1


Tree=86
num_leaves=7
num_cat=0
split_feature=0 18 0 18 0 0
split_gain=1.97476 2.43939 0.944941 1.08578 0.52873 0.362138
threshold=9.0000000000000018 1.0000000180025095e-35 29.000000000000004 1.0000000180025095e-35 19.000000000000004 39.000000000000007
decision_type=2 2 2 2 2 2
left_child=1 -1 3 4 -2 -4
right_child=2 -3 5 -5 -6 -7
leaf_value=0.024920438327133913 0.0074742815415978414 -0.0075144224260468122 -0.059794292955933782 -0.032154630484614803 -0.016387487718392071 -0.013792054687524889
leaf_weight=45.762367562390864 25.972856731386855 47.00490403175354 5.7411399211268854 15.544791758060454 14.453546106582506 2.4379356731660664
leaf_count=342 286 198 53 76 114 39
